{"learner":{"attributes":{"best_iteration":"1172","best_score":"0.9993587355481166","scikit_learn":"{\"_estimator_type\": \"classifier\"}"},"feature_names":["review_length","count_sub_predicates","count_adjectives","count_adverbs","count_new_info_all","cohesion_pc1","cohesion_pc2","cohesion_pc3","cohesion_pc4","cohesion_pc5","cohesion_pc6","cohesion_pc7","cohesion_pc8","cohesion_pc9","cohesion_pc10","cohesion_score_roberta","count_interclausal_connectives","count_temporal_connectives","count_causal_connectives","count_all_where_ner","count_all_when_ner"],"feature_types":["int","int","int","int","int","float","float","float","float","float","float","float","float","float","float","float","int","int","int","int","int"],"gradient_booster":{"model":{"gbtree_model_param":{"num_parallel_tree":"1","num_trees":"1273"},"iteration_indptr":[0,1,2,3,4,5,6,7,8,9,10,11,12,13,14,15,16,17,18,19,20,21,22,23,24,25,26,27,28,29,30,31,32,33,34,35,36,37,38,39,40,41,42,43,44,45,46,47,48,49,50,51,52,53,54,55,56,57,58,59,60,61,62,63,64,65,66,67,68,69,70,71,72,73,74,75,76,77,78,79,80,81,82,83,84,85,86,87,88,89,90,91,92,93,94,95,96,97,98,99,100,101,102,103,104,105,106,107,108,109,110,111,112,113,114,115,116,117,118,119,120,121,122,123,124,125,126,127,128,129,130,131,132,133,134,135,136,137,138,139,140,141,142,143,144,145,146,147,148,149,150,151,152,153,154,155,156,157,158,159,160,161,162,163,164,165,166,167,168,169,170,171,172,173,174,175,176,177,178,179,180,181,182,183,184,185,186,187,188,189,190,191,192,193,194,195,196,197,198,199,200,201,202,203,204,205,206,207,208,209,210,211,212,213,214,215,216,217,218,219,220,221,222,223,224,225,226,227,228,229,230,231,232,233,234,235,236,237,238,239,240,241,242,243,244,245,246,247,248,249,250,251,252,253,254,255,256,257,258,259,260,261,262,263,264,265,266,267,268,269,270,271,272,273,274,275,276,277,278,279,280,281,282,283,284,285,286,287,288,289,290,291,292,293,294,295,296,297,298,299,300,301,302,303,304,305,306,307,308,309,310,311,312,313,314,315,316,317,318,319,320,321,322,323,324,325,326,327,328,329,330,331,332,333,334,335,336,337,338,339,340,341,342,343,344,345,346,347,348,349,350,351,352,353,354,355,356,357,358,359,360,361,362,363,364,365,366,367,368,369,370,371,372,373,374,375,376,377,378,379,380,381,382,383,384,385,386,387,388,389,390,391,392,393,394,395,396,397,398,399,400,401,402,403,404,405,406,407,408,409,410,411,412,413,414,415,416,417,418,419,420,421,422,423,424,425,426,427,428,429,430,431,432,433,434,435,436,437,438,439,440,441,442,443,444,445,446,447,448,449,450,451,452,453,454,455,456,457,458,459,460,461,462,463,464,465,466,467,468,469,470,471,472,473,474,475,476,477,478,479,480,481,482,483,484,485,486,487,488,489,490,491,492,493,494,495,496,497,498,499,500,501,502,503,504,505,506,507,508,509,510,511,512,513,514,515,516,517,518,519,520,521,522,523,524,525,526,527,528,529,530,531,532,533,534,535,536,537,538,539,540,541,542,543,544,545,546,547,548,549,550,551,552,553,554,555,556,557,558,559,560,561,562,563,564,565,566,567,568,569,570,571,572,573,574,575,576,577,578,579,580,581,582,583,584,585,586,587,588,589,590,591,592,593,594,595,596,597,598,599,600,601,602,603,604,605,606,607,608,609,610,611,612,613,614,615,616,617,618,619,620,621,622,623,624,625,626,627,628,629,630,631,632,633,634,635,636,637,638,639,640,641,642,643,644,645,646,647,648,649,650,651,652,653,654,655,656,657,658,659,660,661,662,663,664,665,666,667,668,669,670,671,672,673,674,675,676,677,678,679,680,681,682,683,684,685,686,687,688,689,690,691,692,693,694,695,696,697,698,699,700,701,702,703,704,705,706,707,708,709,710,711,712,713,714,715,716,717,718,719,720,721,722,723,724,725,726,727,728,729,730,731,732,733,734,735,736,737,738,739,740,741,742,743,744,745,746,747,748,749,750,751,752,753,754,755,756,757,758,759,760,761,762,763,764,765,766,767,768,769,770,771,772,773,774,775,776,777,778,779,780,781,782,783,784,785,786,787,788,789,790,791,792,793,794,795,796,797,798,799,800,801,802,803,804,805,806,807,808,809,810,811,812,813,814,815,816,817,818,819,820,821,822,823,824,825,826,827,828,829,830,831,832,833,834,835,836,837,838,839,840,841,842,843,844,845,846,847,848,849,850,851,852,853,854,855,856,857,858,859,860,861,862,863,864,865,866,867,868,869,870,871,872,873,874,875,876,877,878,879,880,881,882,883,884,885,886,887,888,889,890,891,892,893,894,895,896,897,898,899,900,901,902,903,904,905,906,907,908,909,910,911,912,913,914,915,916,917,918,919,920,921,922,923,924,925,926,927,928,929,930,931,932,933,934,935,936,937,938,939,940,941,942,943,944,945,946,947,948,949,950,951,952,953,954,955,956,957,958,959,960,961,962,963,964,965,966,967,968,969,970,971,972,973,974,975,976,977,978,979,980,981,982,983,984,985,986,987,988,989,990,991,992,993,994,995,996,997,998,999,1000,1001,1002,1003,1004,1005,1006,1007,1008,1009,1010,1011,1012,1013,1014,1015,1016,1017,1018,1019,1020,1021,1022,1023,1024,1025,1026,1027,1028,1029,1030,1031,1032,1033,1034,1035,1036,1037,1038,1039,1040,1041,1042,1043,1044,1045,1046,1047,1048,1049,1050,1051,1052,1053,1054,1055,1056,1057,1058,1059,1060,1061,1062,1063,1064,1065,1066,1067,1068,1069,1070,1071,1072,1073,1074,1075,1076,1077,1078,1079,1080,1081,1082,1083,1084,1085,1086,1087,1088,1089,1090,1091,1092,1093,1094,1095,1096,1097,1098,1099,1100,1101,1102,1103,1104,1105,1106,1107,1108,1109,1110,1111,1112,1113,1114,1115,1116,1117,1118,1119,1120,1121,1122,1123,1124,1125,1126,1127,1128,1129,1130,1131,1132,1133,1134,1135,1136,1137,1138,1139,1140,1141,1142,1143,1144,1145,1146,1147,1148,1149,1150,1151,1152,1153,1154,1155,1156,1157,1158,1159,1160,1161,1162,1163,1164,1165,1166,1167,1168,1169,1170,1171,1172,1173,1174,1175,1176,1177,1178,1179,1180,1181,1182,1183,1184,1185,1186,1187,1188,1189,1190,1191,1192,1193,1194,1195,1196,1197,1198,1199,1200,1201,1202,1203,1204,1205,1206,1207,1208,1209,1210,1211,1212,1213,1214,1215,1216,1217,1218,1219,1220,1221,1222,1223,1224,1225,1226,1227,1228,1229,1230,1231,1232,1233,1234,1235,1236,1237,1238,1239,1240,1241,1242,1243,1244,1245,1246,1247,1248,1249,1250,1251,1252,1253,1254,1255,1256,1257,1258,1259,1260,1261,1262,1263,1264,1265,1266,1267,1268,1269,1270,1271,1272,1273],"tree_info":[0,0,0,0,0,0,0,0,0,0,0,0,0,0,0,0,0,0,0,0,0,0,0,0,0,0,0,0,0,0,0,0,0,0,0,0,0,0,0,0,0,0,0,0,0,0,0,0,0,0,0,0,0,0,0,0,0,0,0,0,0,0,0,0,0,0,0,0,0,0,0,0,0,0,0,0,0,0,0,0,0,0,0,0,0,0,0,0,0,0,0,0,0,0,0,0,0,0,0,0,0,0,0,0,0,0,0,0,0,0,0,0,0,0,0,0,0,0,0,0,0,0,0,0,0,0,0,0,0,0,0,0,0,0,0,0,0,0,0,0,0,0,0,0,0,0,0,0,0,0,0,0,0,0,0,0,0,0,0,0,0,0,0,0,0,0,0,0,0,0,0,0,0,0,0,0,0,0,0,0,0,0,0,0,0,0,0,0,0,0,0,0,0,0,0,0,0,0,0,0,0,0,0,0,0,0,0,0,0,0,0,0,0,0,0,0,0,0,0,0,0,0,0,0,0,0,0,0,0,0,0,0,0,0,0,0,0,0,0,0,0,0,0,0,0,0,0,0,0,0,0,0,0,0,0,0,0,0,0,0,0,0,0,0,0,0,0,0,0,0,0,0,0,0,0,0,0,0,0,0,0,0,0,0,0,0,0,0,0,0,0,0,0,0,0,0,0,0,0,0,0,0,0,0,0,0,0,0,0,0,0,0,0,0,0,0,0,0,0,0,0,0,0,0,0,0,0,0,0,0,0,0,0,0,0,0,0,0,0,0,0,0,0,0,0,0,0,0,0,0,0,0,0,0,0,0,0,0,0,0,0,0,0,0,0,0,0,0,0,0,0,0,0,0,0,0,0,0,0,0,0,0,0,0,0,0,0,0,0,0,0,0,0,0,0,0,0,0,0,0,0,0,0,0,0,0,0,0,0,0,0,0,0,0,0,0,0,0,0,0,0,0,0,0,0,0,0,0,0,0,0,0,0,0,0,0,0,0,0,0,0,0,0,0,0,0,0,0,0,0,0,0,0,0,0,0,0,0,0,0,0,0,0,0,0,0,0,0,0,0,0,0,0,0,0,0,0,0,0,0,0,0,0,0,0,0,0,0,0,0,0,0,0,0,0,0,0,0,0,0,0,0,0,0,0,0,0,0,0,0,0,0,0,0,0,0,0,0,0,0,0,0,0,0,0,0,0,0,0,0,0,0,0,0,0,0,0,0,0,0,0,0,0,0,0,0,0,0,0,0,0,0,0,0,0,0,0,0,0,0,0,0,0,0,0,0,0,0,0,0,0,0,0,0,0,0,0,0,0,0,0,0,0,0,0,0,0,0,0,0,0,0,0,0,0,0,0,0,0,0,0,0,0,0,0,0,0,0,0,0,0,0,0,0,0,0,0,0,0,0,0,0,0,0,0,0,0,0,0,0,0,0,0,0,0,0,0,0,0,0,0,0,0,0,0,0,0,0,0,0,0,0,0,0,0,0,0,0,0,0,0,0,0,0,0,0,0,0,0,0,0,0,0,0,0,0,0,0,0,0,0,0,0,0,0,0,0,0,0,0,0,0,0,0,0,0,0,0,0,0,0,0,0,0,0,0,0,0,0,0,0,0,0,0,0,0,0,0,0,0,0,0,0,0,0,0,0,0,0,0,0,0,0,0,0,0,0,0,0,0,0,0,0,0,0,0,0,0,0,0,0,0,0,0,0,0,0,0,0,0,0,0,0,0,0,0,0,0,0,0,0,0,0,0,0,0,0,0,0,0,0,0,0,0,0,0,0,0,0,0,0,0,0,0,0,0,0,0,0,0,0,0,0,0,0,0,0,0,0,0,0,0,0,0,0,0,0,0,0,0,0,0,0,0,0,0,0,0,0,0,0,0,0,0,0,0,0,0,0,0,0,0,0,0,0,0,0,0,0,0,0,0,0,0,0,0,0,0,0,0,0,0,0,0,0,0,0,0,0,0,0,0,0,0,0,0,0,0,0,0,0,0,0,0,0,0,0,0,0,0,0,0,0,0,0,0,0,0,0,0,0,0,0,0,0,0,0,0,0,0,0,0,0,0,0,0,0,0,0,0,0,0,0,0,0,0,0,0,0,0,0,0,0,0,0,0,0,0,0,0,0,0,0,0,0,0,0,0,0,0,0,0,0,0,0,0,0,0,0,0,0,0,0,0,0,0,0,0,0,0,0,0,0,0,0,0,0,0,0,0,0,0,0,0,0,0,0,0,0,0,0,0,0,0,0,0,0,0,0,0,0,0,0,0,0,0,0,0,0,0,0,0,0,0,0,0,0,0,0,0,0,0,0,0,0,0,0,0,0,0,0,0,0,0,0,0,0,0,0,0,0,0,0,0,0,0,0,0,0,0,0,0,0,0,0,0,0,0,0,0,0,0,0,0,0,0,0,0,0,0,0,0,0,0,0,0,0,0,0,0,0,0,0,0,0,0,0,0,0,0,0,0,0,0,0,0,0,0,0,0,0,0,0,0,0,0,0,0,0,0,0,0,0,0,0,0,0,0,0,0,0,0,0,0,0,0,0,0,0,0,0,0,0,0,0,0,0,0,0,0,0,0,0,0,0,0,0,0,0,0,0,0,0,0,0,0,0,0,0,0,0,0,0,0,0,0,0,0,0,0,0,0,0,0,0,0,0,0,0,0,0,0,0,0,0,0,0,0,0,0,0,0,0,0,0,0,0,0,0,0,0,0,0,0,0,0,0,0,0,0,0,0,0,0,0,0,0,0,0,0,0,0,0,0,0,0,0,0,0,0,0,0,0,0,0,0,0,0,0,0,0,0,0,0,0,0,0,0,0,0,0,0,0,0,0,0,0,0,0,0,0,0,0,0,0,0,0,0,0,0,0,0,0],"trees":[{"base_weights":[4.6295206E-8,-1.5537269E0,1.5785003E0,-1.7664257E0,9.32912E-1,1.7941864E0,-1.6568826E0,-5.6661453E-2,-1.962554E-2,4.6185445E-2,-5.0772067E-2,-3.350938E-2,5.822233E-2,-5.9185173E-2,4.965246E-2],"categories":[],"categories_nodes":[],"categories_segments":[],"categories_sizes":[],"default_left":[1,0,0,0,0,0,0,0,0,0,0,0,0,0,0],"id":0,"left_children":[1,3,5,7,9,11,13,-1,-1,-1,-1,-1,-1,-1,-1],"loss_changes":[1.2636193E4,1.3749512E3,1.7864438E3,3.2414648E2,3.294709E2,1.0246455E3,1.7095663E2,0E0,0E0,0E0,0E0,0E0,0E0,0E0,0E0],"parents":[2147483647,0,0,1,1,2,2,3,3,4,4,5,5,6,6],"right_children":[2,4,6,8,10,12,14,-1,-1,-1,-1,-1,-1,-1,-1],"split_conditions":[-3.0813804E-1,1E0,5.9405007E0,7.101996E-1,9.965198E-1,3.9E1,7.020209E0,-5.6661453E-2,-1.962554E-2,4.6185445E-2,-5.0772067E-2,-3.350938E-2,5.822233E-2,-5.9185173E-2,4.965246E-2],"split_indices":[5,17,6,15,6,0,5,0,0,0,0,0,0,0,0],"split_type":[0,0,0,0,0,0,0,0,0,0,0,0,0,0,0],"sum_hessian":[5.15025E3,2.5955E3,2.55475E3,2.39125E3,2.0425E2,2.3955E3,1.5925E2,2.15375E3,2.375E2,1.6625E2,3.8E1,1.145E2,2.281E3,1.4575E2,1.35E1],"tree_param":{"num_deleted":"0","num_feature":"21","num_nodes":"15","size_leaf_vector":"1"}},{"base_weights":[-1.2148754E-5,-1.5085812E0,1.5324789E0,-1.7151235E0,9.0540713E-1,1.7418517E0,-1.6086105E0,-5.5020362E-2,-1.9041065E-2,-3.454755E-2,4.9421232E-2,-3.2521896E-2,5.6525506E-2,-5.747202E-2,4.8293717E-2],"categories":[],"categories_nodes":[],"categories_segments":[],"categories_sizes":[],"default_left":[1,0,0,0,0,0,0,0,0,0,0,0,0,0,0],"id":1,"left_children":[1,3,5,7,9,11,13,-1,-1,-1,-1,-1,-1,-1,-1],"loss_changes":[1.1902161E4,1.2950918E3,1.6823926E3,3.0586475E2,3.1498083E2,9.652656E2,1.613486E2,0E0,0E0,0E0,0E0,0E0,0E0,0E0,0E0],"parents":[2147483647,0,0,1,1,2,2,3,3,4,4,5,5,6,6],"right_children":[2,4,6,8,10,12,14,-1,-1,-1,-1,-1,-1,-1,-1],"split_conditions":[-3.0861863E-1,1E0,5.9405007E0,7.101996E-1,2E0,3.9E1,7.020209E0,-5.5020362E-2,-1.9041065E-2,-3.454755E-2,4.9421232E-2,-3.2521896E-2,5.6525506E-2,-5.747202E-2,4.8293717E-2],"split_indices":[5,17,6,15,3,0,5,0,0,0,0,0,0,0,0],"split_type":[0,0,0,0,0,0,0,0,0,0,0,0,0,0,0],"sum_hessian":[5.146286E3,2.593392E3,2.552894E3,2.3892556E3,2.0413663E2,2.3937795E3,1.5911452E2,2.151778E3,2.3747736E2,5.3967583E1,1.5016904E2,1.1446804E2,2.2793115E3,1.4562286E2,1.349165E1],"tree_param":{"num_deleted":"0","num_feature":"21","num_nodes":"15","size_leaf_vector":"1"}},{"base_weights":[-1.790177E-5,-1.4552566E0,1.5016266E0,-1.66378E0,9.0301436E-1,1.6989865E0,-1.5521634E0,-5.298526E-2,-1.3039988E-2,4.424352E-2,-4.8169453E-2,-3.5236273E-2,5.4878592E-2,-5.5868845E-2,4.7023956E-2],"categories":[],"categories_nodes":[],"categories_segments":[],"categories_sizes":[],"default_left":[1,0,0,0,0,0,0,0,0,0,0,0,0,0,0],"id":2,"left_children":[1,3,5,7,9,11,13,-1,-1,-1,-1,-1,-1,-1,-1],"loss_changes":[1.1225471E4,1.2843779E3,1.5263433E3,3.0093164E2,3.072904E2,8.9145654E2,1.519068E2,0E0,0E0,0E0,0E0,0E0,0E0,0E0,0E0],"parents":[2147483647,0,0,1,1,2,2,3,3,4,4,5,5,6,6],"right_children":[2,4,6,8,10,12,14,-1,-1,-1,-1,-1,-1,-1,-1],"split_conditions":[-2.4531955E-1,1E0,5.939849E0,7.322702E-1,9.9649894E-1,3.8E1,7.020209E0,-5.298526E-2,-1.3039988E-2,4.424352E-2,-4.8169453E-2,-3.5236273E-2,5.4878592E-2,-5.5868845E-2,4.7023956E-2],"split_indices":[5,17,6,15,6,0,5,0,0,0,0,0,0,0,0],"split_type":[0,0,0,0,0,0,0,0,0,0,0,0,0,0,0],"sum_hessian":[5.1349243E3,2.607772E3,2.527152E3,2.3961902E3,2.1158177E2,2.374159E3,1.5299318E2,2.2115159E3,1.846744E2,1.7264497E2,3.893679E1,1.02638405E2,2.2715205E3,1.3952556E2,1.346761E1],"tree_param":{"num_deleted":"0","num_feature":"21","num_nodes":"15","size_leaf_vector":"1"}},{"base_weights":[-2.5269605E-5,-1.4165854E0,1.4618977E0,-1.6193547E0,8.7687594E-1,1.6543703E0,-1.5121666E0,-5.248171E-2,-2.0252666E-2,-3.3151865E-2,4.7282763E-2,-3.423995E-2,5.3442977E-2,-5.4426707E-2,4.583411E-2],"categories":[],"categories_nodes":[],"categories_segments":[],"categories_sizes":[],"default_left":[1,0,0,0,0,0,0,0,0,0,0,0,0,0,0],"id":3,"left_children":[1,3,5,7,9,11,13,-1,-1,-1,-1,-1,-1,-1,-1],"loss_changes":[1.0600697E4,1.2104287E3,1.444502E3,2.921538E2,2.9529498E2,8.4266797E2,1.4385266E2,0E0,0E0,0E0,0E0,0E0,0E0,0E0,0E0],"parents":[2147483647,0,0,1,1,2,2,3,3,4,4,5,5,6,6],"right_children":[2,4,6,8,10,12,14,-1,-1,-1,-1,-1,-1,-1,-1],"split_conditions":[-2.4565914E-1,1E0,5.939849E0,1E1,2E0,3.8E1,7.0198846E0,-5.248171E-2,-2.0252666E-2,-3.3151865E-2,4.7282763E-2,-3.423995E-2,5.3442977E-2,-5.4426707E-2,4.583411E-2],"split_indices":[5,17,6,4,3,0,5,0,0,0,0,0,0,0,0],"split_type":[0,0,0,0,0,0,0,0,0,0,0,0,0,0,0],"sum_hessian":[5.1168794E3,2.5987747E3,2.5181047E3,2.3879458E3,2.1082898E2,2.365463E3,1.5264197E2,2.0981545E3,2.897911E2,5.4830555E1,1.5599841E2,1.0248752E2,2.2629753E3,1.3921274E2,1.3429223E1],"tree_param":{"num_deleted":"0","num_feature":"21","num_nodes":"15","size_leaf_vector":"1"}},{"base_weights":[-2.7061367E-5,-1.3917024E0,1.413784E0,-1.5812057E0,8.263165E-1,1.6075523E0,-1.4871002E0,-5.184984E-2,-2.3171682E-2,-3.2735255E-2,4.5637872E-2,-3.0036828E-2,5.220454E-2,-5.3139873E-2,4.4716243E-2],"categories":[],"categories_nodes":[],"categories_segments":[],"categories_sizes":[],"default_left":[1,0,0,0,0,0,0,0,0,0,0,0,0,0,0],"id":4,"left_children":[1,3,5,7,9,11,13,-1,-1,-1,-1,-1,-1,-1,-1],"loss_changes":[1.0024762E4,1.0805264E3,1.423042E3,2.80188E2,2.7184906E2,8.214497E2,1.3701236E2,0E0,0E0,0E0,0E0,0E0,0E0,0E0,0E0],"parents":[2147483647,0,0,1,1,2,2,3,3,4,4,5,5,6,6],"right_children":[2,4,6,8,10,12,14,-1,-1,-1,-1,-1,-1,-1,-1],"split_conditions":[-3.1402117E-1,1E0,5.939849E0,6.6784286E-1,2E0,3.9E1,7.0193186E0,-5.184984E-2,-2.3171682E-2,-3.2735255E-2,4.5637872E-2,-3.0036828E-2,5.220454E-2,-5.3139873E-2,4.4716243E-2],"split_indices":[5,17,6,15,3,0,5,0,0,0,0,0,0,0,0],"split_type":[0,0,0,0,0,0,0,0,0,0,0,0,0,0,0],"sum_hessian":[5.093006E3,2.566603E3,2.5264026E3,2.3648425E3,2.0176051E2,2.3686326E3,1.5777E2,1.9999231E3,3.6491946E2,5.3519524E1,1.48241E2,1.1425268E2,2.25438E3,1.4439226E2,1.3377747E1],"tree_param":{"num_deleted":"0","num_feature":"21","num_nodes":"15","size_leaf_vector":"1"}},{"base_weights":[-2.8686867E-5,-1.3471311E0,1.39016E0,-1.5394185E0,8.27879E-1,1.5741142E0,-1.4414941E0,-5.001014E-2,-1.8530529E-2,4.107262E-2,-4.577835E-2,-3.2342605E-2,5.089163E-2,-5.1866617E-2,4.3663435E-2],"categories":[],"categories_nodes":[],"categories_segments":[],"categories_sizes":[],"default_left":[1,0,0,0,0,0,0,0,0,0,0,0,0,0,0],"id":5,"left_children":[1,3,5,7,9,11,13,-1,-1,-1,-1,-1,-1,-1,-1],"loss_changes":[9.486208E3,1.0772021E3,1.3007866E3,2.7697607E2,2.6911707E2,7.6109033E2,1.2955533E2,0E0,0E0,0E0,0E0,0E0,0E0,0E0,0E0],"parents":[2147483647,0,0,1,1,2,2,3,3,4,4,5,5,6,6],"right_children":[2,4,6,8,10,12,14,-1,-1,-1,-1,-1,-1,-1,-1],"split_conditions":[-2.538969E-1,1E0,5.939849E0,1E1,9.953418E-1,3.8E1,7.017212E0,-5.001014E-2,-1.8530529E-2,4.107262E-2,-4.577835E-2,-3.2342605E-2,5.089163E-2,-5.1866617E-2,4.3663435E-2],"split_indices":[5,17,6,4,6,0,5,0,0,0,0,0,0,0,0],"split_type":[0,0,0,0,0,0,0,0,0,0,0,0,0,0,0],"sum_hessian":[5.0634526E3,2.5715928E3,2.49186E3,2.3629797E3,2.0861295E2,2.340272E3,1.5158817E2,2.074956E3,2.8802365E2,1.699542E2,3.8658756E1,1.027934E2,2.2374785E3,1.3827382E2,1.3314355E1],"tree_param":{"num_deleted":"0","num_feature":"21","num_nodes":"15","size_leaf_vector":"1"}},{"base_weights":[-3.2208794E-5,-1.3158476E0,1.3578315E0,-1.503627E0,8.056104E-1,1.538093E0,-1.405242E0,-4.87719E-2,-1.626436E-2,4.0014688E-2,-4.462973E-2,-2.8482541E-2,4.990545E-2,-5.0548896E-2,4.266957E-2],"categories":[],"categories_nodes":[],"categories_segments":[],"categories_sizes":[],"default_left":[1,0,0,0,0,0,0,0,0,0,0,0,0,0,0],"id":6,"left_children":[1,3,5,7,9,11,13,-1,-1,-1,-1,-1,-1,-1,-1],"loss_changes":[8.989107E3,1.0190869E3,1.235398E3,2.7473877E2,2.544568E2,7.269033E2,1.2274649E2,0E0,0E0,0E0,0E0,0E0,0E0,0E0,0E0],"parents":[2147483647,0,0,1,1,2,2,3,3,4,4,5,5,6,6],"right_children":[2,4,6,8,10,12,14,-1,-1,-1,-1,-1,-1,-1,-1],"split_conditions":[-2.5834814E-1,1E0,5.939846E0,6.986916E-1,9.951568E-1,3.9E1,7.015566E0,-4.87719E-2,-1.626436E-2,4.0014688E-2,-4.462973E-2,-2.8482541E-2,4.990545E-2,-5.0548896E-2,4.266957E-2],"split_indices":[5,17,6,15,6,0,5,0,0,0,0,0,0,0,0],"split_type":[0,0,0,0,0,0,0,0,0,0,0,0,0,0,0],"sum_hessian":[5.029129E3,2.5541262E3,2.4750027E3,2.3467007E3,2.0742537E2,2.32384E3,1.5116278E2,2.0816511E3,2.6504953E2,1.6893309E2,3.849229E1,1.1123009E2,2.2126099E3,1.3792265E2,1.3240142E1],"tree_param":{"num_deleted":"0","num_feature":"21","num_nodes":"15","size_leaf_vector":"1"}},{"base_weights":[-3.421549E-5,-1.3066561E0,1.3068299E0,-1.4780914E0,7.364664E-1,1.5014791E0,-1.3173552E0,-4.7820423E-2,-1.6731942E-2,-3.2946907E-2,4.2386822E-2,-2.8151449E-2,4.8929702E-2,-5.0127313E-2,4.4303544E-2],"categories":[],"categories_nodes":[],"categories_segments":[],"categories_sizes":[],"default_left":[1,0,0,0,0,0,0,0,0,0,0,0,0,0,0],"id":7,"left_children":[1,3,5,7,9,11,13,-1,-1,-1,-1,-1,-1,-1,-1],"loss_changes":[8.524444E3,8.7544824E2,1.2768379E3,2.4486084E2,2.4220517E2,7.358745E2,1.732504E2,0E0,0E0,0E0,0E0,0E0,0E0,0E0,0E0],"parents":[2147483647,0,0,1,1,2,2,3,3,4,4,5,5,6,6],"right_children":[2,4,6,8,10,12,14,-1,-1,-1,-1,-1,-1,-1,-1],"split_conditions":[-3.955616E-1,1E0,5.5690756E0,6.98821E-1,2E0,3.9E1,7.015403E0,-4.7820423E-2,-1.6731942E-2,-3.2946907E-2,4.2386822E-2,-2.8151449E-2,4.8929702E-2,-5.0127313E-2,4.4303544E-2],"split_indices":[5,17,6,15,3,0,5,0,0,0,0,0,0,0,0],"split_type":[0,0,0,0,0,0,0,0,0,0,0,0,0,0,0],"sum_hessian":[4.9901274E3,2.4952952E3,2.4948323E3,2.3023823E3,1.9291281E2,2.3229548E3,1.7187756E2,2.0441783E3,2.582041E2,5.179742E1,1.4111539E2,1.1677539E2,2.2061794E3,1.5292877E2,1.8948784E1],"tree_param":{"num_deleted":"0","num_feature":"21","num_nodes":"15","size_leaf_vector":"1"}},{"base_weights":[-3.1601056E-5,-1.2477471E0,1.3164617E0,-1.4432039E0,8.878716E-1,-6.6902924E-1,1.5106903E0,-4.6595614E-2,-9.538954E-3,-3.256276E-2,4.083495E-2,5.9626107E-3,-4.2529717E-2,4.7097493E-2,-2.3100344E-2],"categories":[],"categories_nodes":[],"categories_segments":[],"categories_sizes":[],"default_left":[0,0,0,0,0,0,0,0,0,0,0,0,0,0,0],"id":8,"left_children":[1,3,5,7,9,11,13,-1,-1,-1,-1,-1,-1,-1,-1],"loss_changes":[8.1293735E3,1.0619087E3,9.296909E2,2.876421E2,2.010339E2,1.4013593E2,2.9755225E2,0E0,0E0,0E0,0E0,0E0,0E0,0E0,0E0],"parents":[2147483647,0,0,1,1,2,2,3,3,4,4,5,5,6,6],"right_children":[2,4,6,8,10,12,14,-1,-1,-1,-1,-1,-1,-1,-1],"split_conditions":[1E1,1E0,-1.9600484E0,7.22814E-1,-2.7471578E0,-1.8127239E0,5.815234E0,-4.6595614E-2,-9.538954E-3,-3.256276E-2,4.083495E-2,5.9626107E-3,-4.2529717E-2,4.7097493E-2,-2.3100344E-2],"split_indices":[4,17,5,15,5,6,6,0,0,0,0,0,0,0,0],"split_type":[0,0,0,0,0,0,0,0,0,0,0,0,0,0,0],"sum_hessian":[4.9470615E3,2.5399033E3,2.4071584E3,2.3272336E3,2.1266971E2,2.142773E2,2.192881E3,2.119672E3,2.0756154E2,4.0890793E1,1.7177892E2,9.958103E1,1.14696266E2,2.1376807E3,5.520044E1],"tree_param":{"num_deleted":"0","num_feature":"21","num_nodes":"15","size_leaf_vector":"1"}},{"base_weights":[-3.921894E-5,-1.1889845E0,1.3265615E0,-1.3944579E0,8.458066E-1,1.4741294E0,-1.2643499E0,-4.5077708E-2,-7.227421E-3,3.8113017E-2,-4.594556E-2,-3.3259578E-2,4.7073927E-2,-4.7533862E-2,4.1261915E-2],"categories":[],"categories_nodes":[],"categories_segments":[],"categories_sizes":[],"default_left":[1,0,0,0,0,0,0,0,0,0,0,0,0,0,0],"id":9,"left_children":[1,3,5,7,9,11,13,-1,-1,-1,-1,-1,-1,-1,-1],"loss_changes":[7.738912E3,1.0830151E3,8.885144E2,2.9283936E2,2.4214748E2,5.4020703E2,1.082319E2,0E0,0E0,0E0,0E0,0E0,0E0,0E0,0E0],"parents":[2147483647,0,0,1,1,2,2,3,3,4,4,5,5,6,6],"right_children":[2,4,6,8,10,12,14,-1,-1,-1,-1,-1,-1,-1,-1],"split_conditions":[4.6826888E-2,1E0,5.9391356E0,7.304499E-1,1.8699936E0,3.6E1,7.0111623E0,-4.5077708E-2,-7.227421E-3,3.8113017E-2,-4.594556E-2,-3.3259578E-2,4.7073927E-2,-4.7533862E-2,4.1261915E-2],"split_indices":[5,17,6,15,6,0,5,0,0,0,0,0,0,0,0],"split_type":[0,0,0,0,0,0,0,0,0,0,0,0,0,0,0],"sum_hessian":[4.9045684E3,2.5865325E3,2.318036E3,2.349586E3,2.3694675E2,2.193532E3,1.24503784E2,2.1479373E3,2.0164868E2,2.0143324E2,3.5513504E1,7.7442795E1,2.1160894E3,1.1139509E2,1.3108697E1],"tree_param":{"num_deleted":"0","num_feature":"21","num_nodes":"15","size_leaf_vector":"1"}},{"base_weights":[-3.9146722E-5,-1.1994059E0,1.266897E0,-1.387144E0,8.4323466E-1,-6.291816E-1,1.4542017E0,-4.393104E-2,4.016816E-3,-3.191674E-2,3.9165057E-2,6.402954E-3,-4.079842E-2,4.534577E-2,-2.1999303E-2],"categories":[],"categories_nodes":[],"categories_segments":[],"categories_sizes":[],"default_left":[0,0,0,1,0,0,0,0,0,0,0,0,0,0,0],"id":10,"left_children":[1,3,5,7,9,11,13,-1,-1,-1,-1,-1,-1,-1,-1],"loss_changes":[7.381158E3,9.580779E2,8.398501E2,2.686714E2,1.8710793E2,1.3149051E2,2.7073193E2,0E0,0E0,0E0,0E0,0E0,0E0,0E0,0E0],"parents":[2147483647,0,0,1,1,2,2,3,3,4,4,5,5,6,6],"right_children":[2,4,6,8,10,12,14,-1,-1,-1,-1,-1,-1,-1,-1],"split_conditions":[1E1,1E0,-1.9615681E0,1.9877279E0,-2.7471578E0,-1.8186303E0,5.815234E0,-4.393104E-2,4.016816E-3,-3.191674E-2,3.9165057E-2,6.402954E-3,-4.079842E-2,4.534577E-2,-2.1999303E-2],"split_indices":[4,17,5,5,5,6,6,0,0,0,0,0,0,0,0],"split_type":[0,0,0,0,0,0,0,0,0,0,0,0,0,0,0],"sum_hessian":[4.855556E3,2.4943193E3,2.3612366E3,2.2846584E3,2.0966087E2,2.1207283E2,2.1491638E3,2.1743047E3,1.103538E2,4.0650795E1,1.6901007E2,9.8827354E1,1.1324548E2,2.0945842E3,5.457965E1],"tree_param":{"num_deleted":"0","num_feature":"21","num_nodes":"15","size_leaf_vector":"1"}},{"base_weights":[-4.060473E-5,-1.1449652E0,1.2774123E0,-1.3418542E0,8.049837E-1,1.4206479E0,-1.2208914E0,-4.4844523E-2,-1.6624875E-2,-2.7030027E-2,4.097385E-2,-2.761828E-2,4.5609947E-2,-4.612525E-2,4.0801607E-2],"categories":[],"categories_nodes":[],"categories_segments":[],"categories_sizes":[],"default_left":[1,0,0,0,0,0,0,0,0,0,0,0,0,0,0],"id":11,"left_children":[1,3,5,7,9,11,13,-1,-1,-1,-1,-1,-1,-1,-1],"loss_changes":[7.0341733E3,9.748113E2,8.151687E2,2.767798E2,2.2436884E2,5.032578E2,1.0325461E2,0E0,0E0,0E0,0E0,0E0,0E0,0E0,0E0],"parents":[2147483647,0,0,1,1,2,2,3,3,4,4,5,5,6,6],"right_children":[2,4,6,8,10,12,14,-1,-1,-1,-1,-1,-1,-1,-1],"split_conditions":[3.254275E-2,1E0,5.939846E0,6.684115E-1,2E0,3.8E1,7.0016866E0,-4.4844523E-2,-1.6624875E-2,-2.7030027E-2,4.097385E-2,-2.761828E-2,4.5609947E-2,-4.612525E-2,4.0801607E-2],"split_indices":[5,17,6,15,3,0,5,0,0,0,0,0,0,0,0],"split_type":[0,0,0,0,0,0,0,0,0,0,0,0,0,0,0],"sum_hessian":[4.8074043E3,2.5352634E3,2.2721409E3,2.3030347E3,2.3222878E2,2.1493435E3,1.2279719E2,1.9277781E3,3.7525653E2,5.7303944E1,1.7492484E2,8.7439125E1,2.0619045E3,1.0973922E2,1.3057962E1],"tree_param":{"num_deleted":"0","num_feature":"21","num_nodes":"15","size_leaf_vector":"1"}},{"base_weights":[-3.338208E-5,-1.1555393E0,1.2223809E0,-1.3367219E0,8.05486E-1,-5.920568E-1,1.4034585E0,-4.323373E-2,-8.030141E-3,-3.0983211E-2,3.7701942E-2,1.4080148E-3,-4.520789E-2,4.3786712E-2,-2.1135917E-2],"categories":[],"categories_nodes":[],"categories_segments":[],"categories_sizes":[],"default_left":[0,0,0,0,0,0,0,0,0,0,0,0,0,0,0],"id":12,"left_children":[1,3,5,7,9,11,13,-1,-1,-1,-1,-1,-1,-1,-1],"loss_changes":[6.716762E3,8.696177E2,7.60022E2,2.4941455E2,1.7331584E2,1.23058945E2,2.4952051E2,0E0,0E0,0E0,0E0,0E0,0E0,0E0,0E0],"parents":[2147483647,0,0,1,1,2,2,3,3,4,4,5,5,6,6],"right_children":[2,4,6,8,10,12,14,-1,-1,-1,-1,-1,-1,-1,-1],"split_conditions":[1E1,1E0,-1.963937E0,7.259148E-1,-2.7471578E0,-5.1663864E-1,5.8166943E0,-4.323373E-2,-8.030141E-3,-3.0983211E-2,3.7701942E-2,1.4080148E-3,-4.520789E-2,4.3786712E-2,-2.1135917E-2],"split_indices":[4,17,5,15,5,6,6,0,0,0,0,0,0,0,0],"split_type":[0,0,0,0,0,0,0,0,0,0,0,0,0,0,0],"sum_hessian":[4.753206E3,2.4435024E3,2.3097036E3,2.2371284E3,2.0637392E2,2.0938185E2,2.1003218E3,2.0377737E3,1.9935484E2,4.0420853E1,1.6595306E2,1.23836945E2,8.55449E1,2.0461759E3,5.414594E1],"tree_param":{"num_deleted":"0","num_feature":"21","num_nodes":"15","size_leaf_vector":"1"}},{"base_weights":[-4.2115586E-5,-1.1775099E0,1.1593432E0,-1.3466524E0,3.8282388E-1,1.3408942E0,-1.1928792E0,-4.1440308E-2,3.246138E-2,-2.6055956E-2,3.191155E-2,-3.2199524E-2,4.3617766E-2,-4.5608558E-2,4.2313505E-2],"categories":[],"categories_nodes":[],"categories_segments":[],"categories_sizes":[],"default_left":[1,0,0,0,0,0,0,0,0,0,0,0,0,0,0],"id":13,"left_children":[1,3,5,7,9,11,13,-1,-1,-1,-1,-1,-1,-1,-1],"loss_changes":[6.419482E3,6.162446E2,1.0134536E3,1.7885645E2,1.9599706E2,6.019297E2,1.4730167E2,0E0,0E0,0E0,0E0,0E0,0E0,0E0,0E0],"parents":[2147483647,0,0,1,1,2,2,3,3,4,4,5,5,6,6],"right_children":[2,4,6,8,10,12,14,-1,-1,-1,-1,-1,-1,-1,-1],"split_conditions":[-4.8444903E-1,4E0,5.571053E0,1E0,4.3E1,3.6E1,6.991665E0,-4.1440308E-2,3.246138E-2,-2.6055956E-2,3.191155E-2,-3.2199524E-2,4.3617766E-2,-4.5608558E-2,4.2313505E-2],"split_indices":[5,3,6,18,0,0,5,0,0,0,0,0,0,0,0],"split_type":[0,0,0,0,0,0,0,0,0,0,0,0,0,0,0],"sum_hessian":[4.7004385E3,2.3320254E3,2.3684128E3,2.1040774E3,2.2794804E2,2.1991094E3,1.6930344E2,2.0748716E3,2.9205942E1,8.022819E1,1.4771986E2,9.797555E1,2.101134E3,1.5075932E2,1.854412E1],"tree_param":{"num_deleted":"0","num_feature":"21","num_nodes":"15","size_leaf_vector":"1"}},{"base_weights":[-2.7905886E-5,-1.1146604E0,1.1807393E0,-1.2909316E0,7.79447E-1,-3.221182E-1,1.3865266E0,-4.1830126E-2,-7.4802116E-3,-2.9262917E-2,3.648767E-2,8.739509E-3,-4.4939138E-2,4.2940944E-2,-1.8819312E-2],"categories":[],"categories_nodes":[],"categories_segments":[],"categories_sizes":[],"default_left":[0,0,0,0,0,0,0,0,0,0,0,0,0,0,0],"id":14,"left_children":[1,3,5,7,9,11,13,-1,-1,-1,-1,-1,-1,-1,-1],"loss_changes":[6.1143228E3,7.9889844E2,6.981362E2,2.3517383E2,1.5762967E2,1.9700287E2,1.8008496E2,0E0,0E0,0E0,0E0,0E0,0E0,0E0,0E0],"parents":[2147483647,0,0,1,1,2,2,3,3,4,4,5,5,6,6],"right_children":[2,4,6,8,10,12,14,-1,-1,-1,-1,-1,-1,-1,-1],"split_conditions":[1E1,1E0,-1.3458136E0,7.2597927E-1,-2.7475462E0,1.2243505E-1,5.9391356E0,-4.1830126E-2,-7.4802116E-3,-2.9262917E-2,3.648767E-2,8.739509E-3,-4.4939138E-2,4.2940944E-2,-1.8819312E-2],"split_indices":[4,17,5,15,5,6,6,0,0,0,0,0,0,0,0],"split_type":[0,0,0,0,0,0,0,0,0,0,0,0,0,0,0],"sum_hessian":[4.643713E3,2.3887822E3,2.254931E3,2.1856936E3,2.0308865E2,2.7151334E2,1.9834175E3,1.9879933E3,1.977004E2,4.023033E1,1.6285832E2,1.7892273E2,9.259061E1,1.9405012E3,4.2916256E1],"tree_param":{"num_deleted":"0","num_feature":"21","num_nodes":"15","size_leaf_vector":"1"}},{"base_weights":[-3.2353637E-5,-1.1379758E0,1.1204599E0,-1.2824775E0,6.0330075E-1,1.2983638E0,-1.157523E0,-4.2422105E-2,-1.9034328E-2,3.3610024E-2,-4.105388E-2,-2.2874666E-2,4.2758297E-2,-4.4351384E-2,4.1546326E-2],"categories":[],"categories_nodes":[],"categories_segments":[],"categories_sizes":[],"default_left":[1,0,0,0,0,0,0,0,0,0,0,0,0,0,0],"id":15,"left_children":[1,3,5,7,9,11,13,-1,-1,-1,-1,-1,-1,-1,-1],"loss_changes":[5.851499E3,5.7367456E2,9.3860425E2,1.7840625E2,1.8009314E2,5.6218726E2,1.3912012E2,0E0,0E0,0E0,0E0,0E0,0E0,0E0,0E0],"parents":[2147483647,0,0,1,1,2,2,3,3,4,4,5,5,6,6],"right_children":[2,4,6,8,10,12,14,-1,-1,-1,-1,-1,-1,-1,-1],"split_conditions":[-4.9707374E-1,1E0,5.5702333E0,9E0,6.839435E-1,4E1,6.986468E0,-4.2422105E-2,-1.9034328E-2,3.3610024E-2,-4.105388E-2,-2.2874666E-2,4.2758297E-2,-4.4351384E-2,4.1546326E-2],"split_indices":[5,17,6,4,6,0,5,0,0,0,0,0,0,0,0],"split_type":[0,0,0,0,0,0,0,0,0,0,0,0,0,0,0],"sum_hessian":[4.587206E3,2.2758723E3,2.3113337E3,2.1017222E3,1.7415025E2,2.1443E3,1.6703368E2,1.7459758E3,3.5574634E2,1.3831364E2,3.583662E1,1.241009E2,2.0201992E3,1.486875E2,1.8346178E1],"tree_param":{"num_deleted":"0","num_feature":"21","num_nodes":"15","size_leaf_vector":"1"}},{"base_weights":[-3.035219E-5,-1.0431787E0,1.182298E0,-1.2298099E0,7.512819E-1,1.3128569E0,-1.1395032E0,-4.1469853E-2,-1.4260739E-2,3.4211464E-2,-4.2577624E-2,-3.5508614E-2,4.1828036E-2,-4.241359E-2,4.4691037E-2],"categories":[],"categories_nodes":[],"categories_segments":[],"categories_sizes":[],"default_left":[1,0,0,0,0,0,0,0,0,0,0,0,0,0,0],"id":16,"left_children":[1,3,5,7,9,11,13,-1,-1,-1,-1,-1,-1,-1,-1],"loss_changes":[5.5844736E3,8.065464E2,6.44854E2,2.501106E2,1.935337E2,4.1013257E2,8.397514E1,0E0,0E0,0E0,0E0,0E0,0E0,0E0,0E0],"parents":[2147483647,0,0,1,1,2,2,3,3,4,4,5,5,6,6],"right_children":[2,4,6,8,10,12,14,-1,-1,-1,-1,-1,-1,-1,-1],"split_conditions":[5.648534E-2,1E0,6.0700035E0,6.6922736E-1,1.8597069E0,3.4E1,9.181295E0,-4.1469853E-2,-1.4260739E-2,3.4211464E-2,-4.2577624E-2,-3.5508614E-2,4.1828036E-2,-4.241359E-2,4.4691037E-2],"split_indices":[5,17,6,15,6,0,5,0,0,0,0,0,0,0,0],"split_type":[0,0,0,0,0,0,0,0,0,0,0,0,0,0,0],"sum_hessian":[4.525913E3,2.4045432E3,2.12137E3,2.1783052E3,2.2623795E2,2.0088439E3,1.1252624E2,1.8113033E3,3.670019E2,1.922491E2,3.398885E1,6.3012764E1,1.9458312E3,1.0231485E2,1.0211386E1],"tree_param":{"num_deleted":"0","num_feature":"21","num_nodes":"15","size_leaf_vector":"1"}},{"base_weights":[-3.3200227E-5,-1.1582286E0,1.0362633E0,-1.2955312E0,3.860595E-1,-5.4636157E-1,1.2891039E0,-3.976514E-2,2.5549136E-2,2.5993269E-2,-4.138542E-2,-1.4097957E-4,-4.191738E-2,4.0311754E-2,-1.9742867E-2],"categories":[],"categories_nodes":[],"categories_segments":[],"categories_sizes":[],"default_left":[0,1,0,0,0,0,0,0,0,0,0,0,0,0,0],"id":17,"left_children":[1,3,5,7,9,11,13,-1,-1,-1,-1,-1,-1,-1,-1],"loss_changes":[5.3603047E3,4.4767798E2,9.438872E2,1.25791504E2,1.4789992E2,1.4996512E2,2.1707642E2,0E0,0E0,0E0,0E0,0E0,0E0,0E0,0E0],"parents":[2147483647,0,0,1,1,2,2,3,3,4,4,5,5,6,6],"right_children":[2,4,6,8,10,12,14,-1,-1,-1,-1,-1,-1,-1,-1],"split_conditions":[9E0,1.4915787E0,-1.6030508E0,1E0,5.101015E0,-5.352648E-1,5.815234E0,-3.976514E-2,2.5549136E-2,2.5993269E-2,-4.138542E-2,-1.4097957E-4,-4.191738E-2,4.0311754E-2,-1.9742867E-2],"split_indices":[4,5,5,18,6,6,6,0,0,0,0,0,0,0,0],"split_type":[0,0,0,0,0,0,0,0,0,0,0,0,0,0,0],"sum_hessian":[4.4640493E3,2.1079854E3,2.3560642E3,1.9360155E3,1.7196991E2,3.243945E2,2.0316696E3,1.9097391E3,2.6276405E1,1.3558797E2,3.638195E1,1.988284E2,1.2556612E2,1.9765353E3,5.513439E1],"tree_param":{"num_deleted":"0","num_feature":"21","num_nodes":"15","size_leaf_vector":"1"}},{"base_weights":[-4.141357E-5,-1.0941265E0,1.0618057E0,-1.3030856E0,2.7398756E-1,-9.7613317E-1,1.3075374E0,-4.015269E-2,2.330837E-2,-3.808085E-2,3.6036827E-2,-3.3705633E-2,2.7877878E-2,-1.06719E-2,4.0496554E-2],"categories":[],"categories_nodes":[],"categories_segments":[],"categories_sizes":[],"default_left":[0,0,0,0,0,0,0,0,0,0,0,0,0,0,0],"id":18,"left_children":[1,3,5,7,9,11,13,-1,-1,-1,-1,-1,-1,-1,-1],"loss_changes":[5.119809E3,6.2087036E2,1.1212537E3,1.3945508E2,4.1426746E2,6.878688E1,1.410852E2,0E0,0E0,0E0,0E0,0E0,0E0,0E0,0E0],"parents":[2147483647,0,0,1,1,2,2,3,3,4,4,5,5,6,6],"right_children":[2,4,6,8,10,12,14,-1,-1,-1,-1,-1,-1,-1,-1],"split_conditions":[3E0,6.9970053E-1,4E1,1E0,3.9E1,1E0,-3.107775E0,-4.015269E-2,2.330837E-2,-3.808085E-2,3.6036827E-2,-3.3705633E-2,2.7877878E-2,-1.06719E-2,4.0496554E-2],"split_indices":[3,15,0,18,0,17,5,0,0,0,0,0,0,0,0],"split_type":[0,0,0,0,0,0,0,0,0,0,0,0,0,0,0],"sum_hessian":[4.404976E3,2.1695388E3,2.235437E3,1.8821205E3,2.8741843E2,2.4022183E2,1.9952152E3,1.85103E3,3.1090437E1,1.0773291E2,1.7968553E2,2.2335503E2,1.686681E1,4.935438E1,1.9458608E3],"tree_param":{"num_deleted":"0","num_feature":"21","num_nodes":"15","size_leaf_vector":"1"}},{"base_weights":[-3.6642756E-5,-9.9781036E-1,1.1309905E0,-1.1766728E0,7.185569E-1,1.2581524E0,-1.0932648E0,-3.9811835E-2,-1.3370916E-2,-2.4087371E-2,3.6885522E-2,-2.3948733E-2,4.0590595E-2,-4.086112E-2,4.3545093E-2],"categories":[],"categories_nodes":[],"categories_segments":[],"categories_sizes":[],"default_left":[1,0,0,0,0,0,0,0,0,0,0,0,0,0,0],"id":19,"left_children":[1,3,5,7,9,11,13,-1,-1,-1,-1,-1,-1,-1,-1],"loss_changes":[4.903301E3,7.0952686E2,5.77375E2,2.2926978E2,1.7083714E2,3.769817E2,7.766823E1,0E0,0E0,0E0,0E0,0E0,0E0,0E0,0E0],"parents":[2147483647,0,0,1,1,2,2,3,3,4,4,5,5,6,6],"right_children":[2,4,6,8,10,12,14,-1,-1,-1,-1,-1,-1,-1,-1],"split_conditions":[2.6938679E-2,1E0,6.0662766E0,6.6957957E-1,2E0,3.8E1,9.177752E0,-3.9811835E-2,-1.3370916E-2,-2.4087371E-2,3.6885522E-2,-2.3948733E-2,4.0590595E-2,-4.086112E-2,4.3545093E-2],"split_indices":[5,17,6,15,3,0,5,0,0,0,0,0,0,0,0],"split_type":[0,0,0,0,0,0,0,0,0,0,0,0,0,0,0],"sum_hessian":[4.342937E3,2.3074553E3,2.0354817E3,2.0899739E3,2.1748154E2,1.925816E3,1.0966557E2,1.7326824E3,3.5729138E2,5.4532043E1,1.629495E2,8.4596756E1,1.8412194E3,9.960979E1,1.0055786E1],"tree_param":{"num_deleted":"0","num_feature":"21","num_nodes":"15","size_leaf_vector":"1"}},{"base_weights":[-2.452929E-5,-1.1083763E0,9.921355E-1,-1.2292342E0,5.097158E-1,-5.969429E-1,1.2232909E0,-4.0005825E-2,-1.5995845E-2,-3.309661E-2,3.1099545E-2,1.8841734E-3,-3.5434965E-2,3.849393E-2,-1.7337969E-2],"categories":[],"categories_nodes":[],"categories_segments":[],"categories_sizes":[],"default_left":[0,0,0,0,0,0,0,0,0,0,0,0,0,0,0],"id":20,"left_children":[1,3,5,7,9,11,13,-1,-1,-1,-1,-1,-1,-1,-1],"loss_changes":[4.706908E3,3.960039E2,8.3034814E2,1.35875E2,1.2116969E2,1.1088421E2,2.1330103E2,0E0,0E0,0E0,0E0,0E0,0E0,0E0,0E0],"parents":[2147483647,0,0,1,1,2,2,3,3,4,4,5,5,6,6],"right_children":[2,4,6,8,10,12,14,-1,-1,-1,-1,-1,-1,-1,-1],"split_conditions":[9E0,1E0,-1.8620542E0,6.8326455E-1,-2.7475462E0,-1.8775475E0,5.4503384E0,-4.0005825E-2,-1.5995845E-2,-3.309661E-2,3.1099545E-2,1.8841734E-3,-3.5434965E-2,3.849393E-2,-1.7337969E-2],"split_indices":[4,17,5,15,5,6,6,0,0,0,0,0,0,0,0],"split_type":[0,0,0,0,0,0,0,0,0,0,0,0,0,0,0],"sum_hessian":[4.278322E3,2.020776E3,2.2575457E3,1.8805544E3,1.4022145E2,2.864896E2,1.9710562E3,1.6346982E3,2.458563E2,3.4259712E1,1.0596173E2,1.3496706E2,1.5152255E2,1.9079576E3,6.3098545E1],"tree_param":{"num_deleted":"0","num_feature":"21","num_nodes":"15","size_leaf_vector":"1"}},{"base_weights":[-4.3129334E-5,-1.0489062E0,1.01849E0,-1.2521311E0,2.587576E-1,-9.336358E-1,1.2584275E0,-3.8622655E-2,2.3034954E-2,-3.6747973E-2,3.4842383E-2,-3.226745E-2,2.6327861E-2,-9.602041E-3,3.8997106E-2],"categories":[],"categories_nodes":[],"categories_segments":[],"categories_sizes":[],"default_left":[0,0,0,0,0,0,0,0,0,0,0,0,0,0,0],"id":21,"left_children":[1,3,5,7,9,11,13,-1,-1,-1,-1,-1,-1,-1,-1],"loss_changes":[4.5073486E3,5.5272144E2,1.0037761E3,1.2924756E2,3.7697766E2,6.132866E1,1.2524487E2,0E0,0E0,0E0,0E0,0E0,0E0,0E0,0E0],"parents":[2147483647,0,0,1,1,2,2,3,3,4,4,5,5,6,6],"right_children":[2,4,6,8,10,12,14,-1,-1,-1,-1,-1,-1,-1,-1],"split_conditions":[3E0,6.999708E-1,4E1,1E0,3.9E1,1E0,-3.1023371E0,-3.8622655E-2,2.3034954E-2,-3.6747973E-2,3.4842383E-2,-3.226745E-2,2.6327861E-2,-9.602041E-3,3.8997106E-2],"split_indices":[3,15,0,18,0,17,5,0,0,0,0,0,0,0,0],"split_type":[0,0,0,0,0,0,0,0,0,0,0,0,0,0,0],"sum_hessian":[4.217172E3,2.077637E3,2.139535E3,1.7982173E3,2.7941968E2,2.3387141E2,1.9056633E3,1.7676965E3,3.0520702E1,1.055578E2,1.7386188E2,2.1725159E2,1.6619823E1,4.8618652E1,1.8570447E3],"tree_param":{"num_deleted":"0","num_feature":"21","num_nodes":"15","size_leaf_vector":"1"}},{"base_weights":[-3.8101287E-5,-1.052789E0,9.890683E-1,-1.1724882E0,4.585174E-1,1.1699193E0,-1.0374136E0,-3.8845975E-2,-1.6701074E-2,3.10003E-2,-3.3196334E-2,-2.1593455E-2,3.92061E-2,-4.053778E-2,3.843643E-2],"categories":[],"categories_nodes":[],"categories_segments":[],"categories_sizes":[],"default_left":[1,0,0,0,0,0,0,0,0,0,0,0,0,0,0],"id":22,"left_children":[1,3,5,7,9,11,13,-1,-1,-1,-1,-1,-1,-1,-1],"loss_changes":[4.3269873E3,3.6468628E2,7.8641455E2,1.3986084E2,1.3469432E2,5.1009937E2,1.2985413E2,0E0,0E0,0E0,0E0,0E0,0E0,0E0,0E0],"parents":[2147483647,0,0,1,1,2,2,3,3,4,4,5,5,6,6],"right_children":[2,4,6,8,10,12,14,-1,-1,-1,-1,-1,-1,-1,-1],"split_conditions":[-7.4982965E-1,1E0,5.206139E0,6.6786486E-1,-2.5840628E-1,4E1,6.415082E0,-3.8845975E-2,-1.6701074E-2,3.10003E-2,-3.3196334E-2,-2.1593455E-2,3.92061E-2,-4.053778E-2,3.843643E-2],"split_indices":[5,17,6,15,6,0,5,0,0,0,0,0,0,0,0],"split_type":[0,0,0,0,0,0,0,0,0,0,0,0,0,0,0],"sum_hessian":[4.1534395E3,2.0119575E3,2.1414822E3,1.8645079E3,1.4744957E2,1.9664144E3,1.7506764E2,1.5544775E3,3.100304E2,1.0808951E2,3.936006E1,1.325926E2,1.8338219E3,1.5456342E2,2.0504232E1],"tree_param":{"num_deleted":"0","num_feature":"21","num_nodes":"15","size_leaf_vector":"1"}},{"base_weights":[-3.5356366E-5,-9.386451E-1,1.080567E0,-1.1112326E0,6.7842996E-1,1.2005394E0,-1.0314549E0,-3.7941318E-2,-1.2380667E-2,3.185689E-2,-3.5568472E-2,-3.171988E-2,3.8382027E-2,-3.904683E-2,4.1839924E-2],"categories":[],"categories_nodes":[],"categories_segments":[],"categories_sizes":[],"default_left":[1,0,0,0,0,0,0,0,0,0,0,0,0,0,0],"id":23,"left_children":[1,3,5,7,9,11,13,-1,-1,-1,-1,-1,-1,-1,-1],"loss_changes":[4.1474355E3,6.1148816E2,4.8286597E2,2.1150659E2,1.5254916E2,3.216936E2,6.9120224E1,0E0,0E0,0E0,0E0,0E0,0E0,0E0,0E0],"parents":[2147483647,0,0,1,1,2,2,3,3,4,4,5,5,6,6],"right_children":[2,4,6,8,10,12,14,-1,-1,-1,-1,-1,-1,-1,-1],"split_conditions":[4.5053724E-2,1E0,6.065266E0,6.682349E-1,9.97029E-1,3.4E1,9.166371E0,-3.7941318E-2,-1.2380667E-2,3.185689E-2,-3.5568472E-2,-3.171988E-2,3.8382027E-2,-3.904683E-2,4.1839924E-2],"split_indices":[5,17,6,15,6,0,5,0,0,0,0,0,0,0,0],"split_type":[0,0,0,0,0,0,0,0,0,0,0,0,0,0,0],"sum_hessian":[4.087109E3,2.187329E3,1.8997798E3,1.9766749E3,2.1065413E2,1.7980726E3,1.0170707E2,1.6199443E3,3.567306E2,1.7506961E2,3.5584515E1,6.0263805E1,1.7378088E3,9.1935196E1,9.771868E0],"tree_param":{"num_deleted":"0","num_feature":"21","num_nodes":"15","size_leaf_vector":"1"}},{"base_weights":[-3.599155E-5,-9.642481E-1,1.0300378E0,-1.1212058E0,6.5827924E-1,-2.1815833E-1,1.2175835E0,-3.7488773E-2,-1.1980247E-2,-2.6772369E-2,3.2088403E-2,9.395478E-3,-3.960573E-2,3.7758805E-2,-1.5466067E-2],"categories":[],"categories_nodes":[],"categories_segments":[],"categories_sizes":[],"default_left":[0,0,0,0,0,0,0,0,0,0,0,0,0,0,0],"id":24,"left_children":[1,3,5,7,9,11,13,-1,-1,-1,-1,-1,-1,-1,-1],"loss_changes":[3.9964216E3,5.3001855E2,4.5567896E2,1.7520532E2,1.18284805E2,1.4971394E2,1.2096704E2,0E0,0E0,0E0,0E0,0E0,0E0,0E0,0E0],"parents":[2147483647,0,0,1,1,2,2,3,3,4,4,5,5,6,6],"right_children":[2,4,6,8,10,12,14,-1,-1,-1,-1,-1,-1,-1,-1],"split_conditions":[1E1,1E0,-1.3322791E0,6.839869E-1,-2.7440035E0,1.2243505E-1,5.9304905E0,-3.7488773E-2,-1.1980247E-2,-2.6772369E-2,3.2088403E-2,9.395478E-3,-3.960573E-2,3.7758805E-2,-1.5466067E-2],"split_indices":[4,17,5,15,5,6,6,0,0,0,0,0,0,0,0],"split_type":[0,0,0,0,0,0,0,0,0,0,0,0,0,0,0],"sum_hessian":[4.0217446E3,2.0773147E3,1.9444299E3,1.8943689E3,1.8294577E2,2.5397255E2,1.6904574E3,1.6076382E3,2.867307E2,3.810897E1,1.448368E2,1.7183754E2,8.213501E1,1.6516179E3,3.8839447E1],"tree_param":{"num_deleted":"0","num_feature":"21","num_nodes":"15","size_leaf_vector":"1"}},{"base_weights":[-4.3137352E-5,-9.9792194E-1,9.6989155E-1,-1.2123483E0,1.320491E-1,-7.917859E-1,1.2155892E0,-3.743735E-2,9.553437E-3,-3.6755677E-2,3.1269073E-2,-2.9062709E-2,2.792459E-2,-8.554419E-3,3.7608705E-2],"categories":[],"categories_nodes":[],"categories_segments":[],"categories_sizes":[],"default_left":[0,0,0,1,0,0,0,0,0,0,0,0,0,0,0],"id":25,"left_children":[1,3,5,7,9,11,13,-1,-1,-1,-1,-1,-1,-1,-1],"loss_changes":[3.8342266E3,4.7326953E2,8.7048035E2,8.974902E1,3.8714676E2,7.604326E1,1.010105E2,0E0,0E0,0E0,0E0,0E0,0E0,0E0,0E0],"parents":[2147483647,0,0,1,1,2,2,3,3,4,4,5,5,6,6],"right_children":[2,4,6,8,10,12,14,-1,-1,-1,-1,-1,-1,-1,-1],"split_conditions":[3E0,6.841689E-1,4.2E1,2.9259164E0,3.8E1,1E0,-3.098673E0,-3.743735E-2,9.553437E-3,-3.6755677E-2,3.1269073E-2,-2.9062709E-2,2.792459E-2,-8.554419E-3,3.7608705E-2],"split_indices":[3,15,0,5,0,17,5,0,0,0,0,0,0,0,0],"split_type":[0,0,0,0,0,0,0,0,0,0,0,0,0,0,0],"sum_hessian":[3.95948E3,1.9516123E3,2.0078678E3,1.6402761E3,3.1133618E2,2.4548582E2,1.762382E3,1.6032151E3,3.7061005E1,1.24842735E2,1.8649345E2,2.2301237E2,2.247345E1,4.3400784E1,1.7189811E3],"tree_param":{"num_deleted":"0","num_feature":"21","num_nodes":"15","size_leaf_vector":"1"}},{"base_weights":[-4.2784333E-5,-1.0256686E0,9.186725E-1,-1.1538986E0,3.901923E-1,-4.3189114E-1,1.1526575E0,-3.551509E-2,2.3830408E-2,2.4129542E-2,-3.7394326E-2,1.3420645E-3,-3.7700374E-2,3.619643E-2,-1.4341833E-2],"categories":[],"categories_nodes":[],"categories_segments":[],"categories_sizes":[],"default_left":[0,1,0,0,0,0,0,0,0,0,0,0,0,0,0],"id":26,"left_children":[1,3,5,7,9,11,13,-1,-1,-1,-1,-1,-1,-1,-1],"loss_changes":[3.6721309E3,3.3477356E2,6.5013025E2,9.943945E1,1.0515851E2,1.19677185E2,1.5458032E2,0E0,0E0,0E0,0E0,0E0,0E0,0E0,0E0],"parents":[2147483647,0,0,1,1,2,2,3,3,4,4,5,5,6,6],"right_children":[2,4,6,8,10,12,14,-1,-1,-1,-1,-1,-1,-1,-1],"split_conditions":[9E0,1.5169753E0,-1.5755403E0,1E0,5.092959E0,-5.098513E-1,5.4473357E0,-3.551509E-2,2.3830408E-2,2.4129542E-2,-3.7394326E-2,1.3420645E-3,-3.7700374E-2,3.619643E-2,-1.4341833E-2],"split_indices":[4,5,5,18,6,6,6,0,0,0,0,0,0,0,0],"split_type":[0,0,0,0,0,0,0,0,0,0,0,0,0,0,0],"sum_hessian":[3.8951602E3,1.8404364E3,2.0547236E3,1.6877659E3,1.5267056E2,3.0328928E2,1.7514343E3,1.6626097E3,2.5156172E1,1.2224703E2,3.042354E1,1.928128E2,1.1047647E2,1.6956583E3,5.5776073E1],"tree_param":{"num_deleted":"0","num_feature":"21","num_nodes":"15","size_leaf_vector":"1"}},{"base_weights":[-4.9866445E-5,-9.7252166E-1,9.4526565E-1,-1.1693609E0,2.2111458E-1,-7.704957E-1,1.1886915E0,-3.6104526E-2,2.152036E-2,-3.4294844E-2,3.220995E-2,-2.8320014E-2,2.7204905E-2,-7.9714125E-3,3.6797628E-2],"categories":[],"categories_nodes":[],"categories_segments":[],"categories_sizes":[],"default_left":[0,0,0,0,0,0,0,0,0,0,0,0,0,0,0],"id":27,"left_children":[1,3,5,7,9,11,13,-1,-1,-1,-1,-1,-1,-1,-1],"loss_changes":[3.5264827E3,4.445299E2,8.133495E2,1.0537622E2,3.1354562E2,7.136966E1,9.423926E1,0E0,0E0,0E0,0E0,0E0,0E0,0E0,0E0],"parents":[2147483647,0,0,1,1,2,2,3,3,4,4,5,5,6,6],"right_children":[2,4,6,8,10,12,14,-1,-1,-1,-1,-1,-1,-1,-1],"split_conditions":[3E0,6.986728E-1,4.2E1,1E0,3.9E1,1E0,-3.093073E0,-3.6104526E-2,2.152036E-2,-3.4294844E-2,3.220995E-2,-2.8320014E-2,2.7204905E-2,-7.9714125E-3,3.6797628E-2],"split_indices":[3,15,0,18,0,17,5,0,0,0,0,0,0,0,0],"split_type":[0,0,0,0,0,0,0,0,0,0,0,0,0,0,0],"sum_hessian":[3.8340828E3,1.8898815E3,1.9442012E3,1.6223624E3,2.6751895E2,2.4129478E2,1.7029064E3,1.5938971E3,2.8465364E1,1.0275175E2,1.6476721E2,2.19071E2,2.222379E1,4.3091766E1,1.6598147E3],"tree_param":{"num_deleted":"0","num_feature":"21","num_nodes":"15","size_leaf_vector":"1"}},{"base_weights":[-4.051823E-5,-8.763158E-1,1.0248309E0,-1.0437449E0,6.484682E-1,1.1397827E0,-9.7129357E-1,-3.5960212E-2,-1.1195577E-2,2.9613433E-2,-3.760865E-2,-3.0151078E-2,3.6549438E-2,-3.73385E-2,4.0533118E-2],"categories":[],"categories_nodes":[],"categories_segments":[],"categories_sizes":[],"default_left":[1,0,0,0,0,0,0,0,0,0,0,0,0,0,0],"id":28,"left_children":[1,3,5,7,9,11,13,-1,-1,-1,-1,-1,-1,-1,-1],"loss_changes":[3.3877769E3,5.198334E2,4.0006995E2,1.8995471E2,1.3123691E2,2.7821973E2,6.2121475E1,0E0,0E0,0E0,0E0,0E0,0E0,0E0,0E0],"parents":[2147483647,0,0,1,1,2,2,3,3,4,4,5,5,6,6],"right_children":[2,4,6,8,10,12,14,-1,-1,-1,-1,-1,-1,-1,-1],"split_conditions":[5.648534E-2,1E0,6.0625067E0,6.6946054E-1,1.8757707E0,3.4E1,9.415596E0,-3.5960212E-2,-1.1195577E-2,2.9613433E-2,-3.760865E-2,-3.0151078E-2,3.6549438E-2,-3.73385E-2,4.0533118E-2],"split_indices":[5,17,6,15,6,0,5,0,0,0,0,0,0,0,0],"split_type":[0,0,0,0,0,0,0,0,0,0,0,0,0,0,0],"sum_hessian":[3.770288E3,2.0325676E3,1.7377205E3,1.8317477E3,2.0081998E2,1.6435043E3,9.421616E1,1.4873229E3,3.4442474E2,1.7087805E2,2.9941929E1,5.763427E1,1.58587E3,8.471064E1,9.50552E0],"tree_param":{"num_deleted":"0","num_feature":"21","num_nodes":"15","size_leaf_vector":"1"}},{"base_weights":[-4.263686E-5,-9.502734E-1,9.240913E-1,-1.1679928E0,8.164508E-2,-1.0538652E0,1.1279497E0,-3.6054205E-2,8.69666E-3,-3.3669163E-2,2.9175717E-2,-3.3831E-2,1.4413625E-2,2.1849782E-3,3.5909392E-2],"categories":[],"categories_nodes":[],"categories_segments":[],"categories_sizes":[],"default_left":[0,0,0,1,0,0,0,0,0,0,0,0,0,0,0],"id":29,"left_children":[1,3,5,7,9,11,13,-1,-1,-1,-1,-1,-1,-1,-1],"loss_changes":[3.2561528E3,4.1083252E2,7.591747E2,7.4773926E1,3.437285E2,2.0498154E1,1.2407153E2,0E0,0E0,0E0,0E0,0E0,0E0,0E0,0E0],"parents":[2147483647,0,0,1,1,2,2,3,3,4,4,5,5,6,6],"right_children":[2,4,6,8,10,12,14,-1,-1,-1,-1,-1,-1,-1,-1],"split_conditions":[3E0,6.7611593E-1,3.6E1,2.9511888E0,3.9E1,1E0,-2.214008E0,-3.6054205E-2,8.69666E-3,-3.3669163E-2,2.9175717E-2,-3.3831E-2,1.4413625E-2,2.1849782E-3,3.5909392E-2],"split_indices":[3,15,0,5,0,17,5,0,0,0,0,0,0,0,0],"split_type":[0,0,0,0,0,0,0,0,0,0,0,0,0,0,0],"sum_hessian":[3.706009E3,1.827191E3,1.8788179E3,1.508738E3,3.1845306E2,1.7515828E2,1.7036597E3,1.4747092E3,3.402875E1,1.353197E2,1.8313335E2,1.6736911E2,7.789164E0,1.0474212E2,1.5989175E3],"tree_param":{"num_deleted":"0","num_feature":"21","num_nodes":"15","size_leaf_vector":"1"}},{"base_weights":[-4.9913917E-5,-8.5646206E-1,1.0016458E0,-1.1408287E0,-2.277061E-3,1.1174233E0,-9.3530095E-1,-3.4879662E-2,1.8103212E-2,1.2325994E-2,-3.3862244E-2,-1.933114E-2,3.6290705E-2,-3.7342805E-2,3.4576163E-2],"categories":[],"categories_nodes":[],"categories_segments":[],"categories_sizes":[],"default_left":[1,0,0,0,0,0,0,0,0,0,0,0,0,0,0],"id":30,"left_children":[1,3,5,7,9,11,13,-1,-1,-1,-1,-1,-1,-1,-1],"loss_changes":[3.1268337E3,4.7728662E2,3.777832E2,5.6826416E1,2.2932973E2,2.58537E2,6.3006165E1,0E0,0E0,0E0,0E0,0E0,0E0,0E0,0E0],"parents":[2147483647,0,0,1,1,2,2,3,3,4,4,5,5,6,6],"right_children":[2,4,6,8,10,12,14,-1,-1,-1,-1,-1,-1,-1,-1],"split_conditions":[2.9472722E-2,9E0,5.9304905E0,1E0,1.2243505E-1,3.8E1,7.0302653E0,-3.4879662E-2,1.8103212E-2,1.2325994E-2,-3.3862244E-2,-1.933114E-2,3.6290705E-2,-3.7342805E-2,3.4576163E-2],"split_indices":[5,4,6,18,6,0,5,0,0,0,0,0,0,0,0],"split_type":[0,0,0,0,0,0,0,0,0,0,0,0,0,0,0],"sum_hessian":[3.6429045E3,1.9639479E3,1.6789565E3,1.4731771E3,4.907708E2,1.5846595E3,9.429703E1,1.4552997E3,1.7877367E1,3.5954053E2,1.3123027E2,7.856245E1,1.506097E3,8.247622E1,1.1820806E1],"tree_param":{"num_deleted":"0","num_feature":"21","num_nodes":"15","size_leaf_vector":"1"}},{"base_weights":[-4.867764E-5,-9.281224E-1,9.022171E-1,-1.138596E0,1.157206E-1,-7.2941005E-1,1.1413741E0,-3.5243455E-2,9.517671E-3,-3.5243846E-2,2.7924972E-2,-2.6861576E-2,2.5699018E-2,-6.9771213E-3,3.5387043E-2],"categories":[],"categories_nodes":[],"categories_segments":[],"categories_sizes":[],"default_left":[0,0,0,1,0,0,0,0,0,0,0,0,0,0,0],"id":31,"left_children":[1,3,5,7,9,11,13,-1,-1,-1,-1,-1,-1,-1,-1],"loss_changes":[3.000158E3,3.8815942E2,7.097279E2,7.780847E1,3.1379434E2,6.2063713E1,8.3440186E1,0E0,0E0,0E0,0E0,0E0,0E0,0E0,0E0],"parents":[2147483647,0,0,1,1,2,2,3,3,4,4,5,5,6,6],"right_children":[2,4,6,8,10,12,14,-1,-1,-1,-1,-1,-1,-1,-1],"split_conditions":[3E0,6.831203E-1,4.2E1,2.9220092E0,3.7E1,1E0,-3.087347E0,-3.5243455E-2,9.517671E-3,-3.5243846E-2,2.7924972E-2,-2.6861576E-2,2.5699018E-2,-6.9771213E-3,3.5387043E-2],"split_indices":[3,15,0,5,0,17,5,0,0,0,0,0,0,0,0],"split_type":[0,0,0,0,0,0,0,0,0,0,0,0,0,0,0],"sum_hessian":[3.5808376E3,1.7651595E3,1.815678E3,1.4688912E3,2.962683E2,2.3185036E2,1.5838276E3,1.4334552E3,3.543613E1,1.14517944E2,1.8175037E2,2.1028046E2,2.1569904E1,4.270002E1,1.5411277E3],"tree_param":{"num_deleted":"0","num_feature":"21","num_nodes":"15","size_leaf_vector":"1"}},{"base_weights":[-5.0502967E-5,-9.262025E-1,8.838762E-1,-1.181764E0,-2.8155273E-1,1.0517125E0,-9.439845E-1,-3.6137816E-2,-1.2086635E-2,3.797935E-3,-3.4869753E-2,-1.8057114E-2,3.5591546E-2,-3.7256908E-2,3.4710046E-2],"categories":[],"categories_nodes":[],"categories_segments":[],"categories_sizes":[],"default_left":[1,0,0,0,0,0,0,0,0,0,0,0,0,0,0],"id":32,"left_children":[1,3,5,7,9,11,13,-1,-1,-1,-1,-1,-1,-1,-1],"loss_changes":[2.8822373E3,2.8291687E2,5.536362E2,2.1401978E1,1.7608188E2,3.682522E2,9.659096E1,0E0,0E0,0E0,0E0,0E0,0E0,0E0,0E0],"parents":[2147483647,0,0,1,1,2,2,3,3,4,4,5,5,6,6],"right_children":[2,4,6,8,10,12,14,-1,-1,-1,-1,-1,-1,-1,-1],"split_conditions":[-7.710538E-1,8E0,5.194164E0,2E0,-2.062721E-1,4E1,6.4502754E0,-3.6137816E-2,-1.2086635E-2,3.797935E-3,-3.4869753E-2,-1.8057114E-2,3.5591546E-2,-3.7256908E-2,3.4710046E-2],"split_indices":[5,4,6,1,6,0,5,0,0,0,0,0,0,0,0],"split_type":[0,0,0,0,0,0,0,0,0,0,0,0,0,0,0],"sum_hessian":[3.5187175E3,1.7182933E3,1.8004242E3,1.2298894E3,4.884039E2,1.649399E3,1.5102516E2,1.1943352E3,3.5554165E1,3.3433096E2,1.5407294E2,1.239516E2,1.5254475E3,1.3262788E2,1.8397272E1],"tree_param":{"num_deleted":"0","num_feature":"21","num_nodes":"15","size_leaf_vector":"1"}},{"base_weights":[-6.363277E-5,-8.211546E-1,9.754041E-1,-9.858449E-1,6.3700086E-1,1.0865047E0,-9.32593E-1,-3.4373134E-2,-1.0242158E-2,2.8604157E-2,-3.5434578E-2,-2.7398994E-2,3.4921568E-2,-3.5920486E-2,3.807472E-2],"categories":[],"categories_nodes":[],"categories_segments":[],"categories_sizes":[],"default_left":[1,0,0,0,0,0,0,0,0,0,0,0,0,0,0],"id":33,"left_children":[1,3,5,7,9,11,13,-1,-1,-1,-1,-1,-1,-1,-1],"loss_changes":[2.7704092E3,4.5163464E2,3.3612048E2,1.7356543E2,1.1114034E2,2.3280261E2,5.2539825E1,0E0,0E0,0E0,0E0,0E0,0E0,0E0,0E0],"parents":[2147483647,0,0,1,1,2,2,3,3,4,4,5,5,6,6],"right_children":[2,4,6,8,10,12,14,-1,-1,-1,-1,-1,-1,-1,-1],"split_conditions":[4.1888185E-2,1E0,6.050668E0,6.683116E-1,1.9122641E0,3.4E1,9.399511E0,-3.4373134E-2,-1.0242158E-2,2.8604157E-2,-3.5434578E-2,-2.7398994E-2,3.4921568E-2,-3.5920486E-2,3.807472E-2],"split_indices":[5,17,6,15,6,0,5,0,0,0,0,0,0,0,0],"split_type":[0,0,0,0,0,0,0,0,0,0,0,0,0,0,0],"sum_hessian":[3.4569138E3,1.8770676E3,1.5798463E3,1.6868694E3,1.9019827E2,1.4933223E3,8.6524025E1,1.350858E3,3.360113E2,1.6240529E2,2.7792974E1,5.5343426E1,1.4379789E3,7.764369E1,8.880334E0],"tree_param":{"num_deleted":"0","num_feature":"21","num_nodes":"15","size_leaf_vector":"1"}},{"base_weights":[-6.562544E-5,-8.5430247E-1,9.212411E-1,-1.0032245E0,6.058966E-1,-3.4775087E-1,1.0770205E0,-3.4601465E-2,-1.2440128E-2,-2.2987787E-2,2.994577E-2,1.3754352E-2,-2.5921628E-2,-1.2520511E-2,3.3874873E-2],"categories":[],"categories_nodes":[],"categories_segments":[],"categories_sizes":[],"default_left":[0,0,0,0,0,0,0,0,0,0,0,0,0,0,0],"id":34,"left_children":[1,3,5,7,9,11,13,-1,-1,-1,-1,-1,-1,-1,-1],"loss_changes":[2.6738447E3,3.8395947E2,3.2349878E2,1.4093384E2,8.892461E1,7.510332E1,1.1392822E2,0E0,0E0,0E0,0E0,0E0,0E0,0E0,0E0],"parents":[2147483647,0,0,1,1,2,2,3,3,4,4,5,5,6,6],"right_children":[2,4,6,8,10,12,14,-1,-1,-1,-1,-1,-1,-1,-1],"split_conditions":[1E1,1E0,-1.9615681E0,6.591606E-1,-2.7349365E0,-2.5200388E0,4.6E1,-3.4601465E-2,-1.2440128E-2,-2.2987787E-2,2.994577E-2,1.3754352E-2,-2.5921628E-2,-1.2520511E-2,3.3874873E-2],"split_indices":[4,17,5,15,5,6,0,0,0,0,0,0,0,0,0],"split_type":[0,0,0,0,0,0,0,0,0,0,0,0,0,0,0],"sum_hessian":[3.3954543E3,1.7618954E3,1.633559E3,1.5991183E3,1.6277707E2,1.7847281E2,1.4550862E3,1.2733011E3,3.2581714E2,3.597876E1,1.2679831E2,6.9717705E1,1.08755104E2,4.882315E1,1.4062631E3],"tree_param":{"num_deleted":"0","num_feature":"21","num_nodes":"15","size_leaf_vector":"1"}},{"base_weights":[-7.1812545E-5,-8.902643E-1,8.6548823E-1,-1.0977767E0,1.1357815E-1,-9.853299E-1,1.0642072E0,-3.4213427E-2,4.3827877E-3,-3.390688E-2,2.696619E-2,-3.7323974E-2,-1.641896E-2,-7.4152206E-3,3.347942E-2],"categories":[],"categories_nodes":[],"categories_segments":[],"categories_sizes":[],"default_left":[0,0,0,0,0,0,0,0,0,0,0,0,0,0,0],"id":35,"left_children":[1,3,5,7,9,11,13,-1,-1,-1,-1,-1,-1,-1,-1],"loss_changes":[2.574226E3,3.4321533E2,6.240503E2,7.261536E1,2.774876E2,1.7996399E1,1.0416394E2,0E0,0E0,0E0,0E0,0E0,0E0,0E0,0E0],"parents":[2147483647,0,0,1,1,2,2,3,3,4,4,5,5,6,6],"right_children":[2,4,6,8,10,12,14,-1,-1,-1,-1,-1,-1,-1,-1],"split_conditions":[3E0,6.839416E-1,3.6E1,2E0,3.7E1,2.9E1,-3.0832655E0,-3.4213427E-2,4.3827877E-3,-3.390688E-2,2.696619E-2,-3.7323974E-2,-1.641896E-2,-7.4152206E-3,3.347942E-2],"split_indices":[3,15,0,1,0,0,5,0,0,0,0,0,0,0,0],"split_type":[0,0,0,0,0,0,0,0,0,0,0,0,0,0,0],"sum_hessian":[3.3389158E3,1.6460221E3,1.6928937E3,1.3639711E3,2.8205103E2,1.6375578E2,1.529138E3,1.3188124E3,4.515874E1,1.0898824E2,1.7306279E2,1.0178043E2,6.197535E1,5.7934135E1,1.4712039E3],"tree_param":{"num_deleted":"0","num_feature":"21","num_nodes":"15","size_leaf_vector":"1"}},{"base_weights":[-1.01757345E-4,-6.746384E-1,1.1204773E0,-1.0486914E0,1.6615245E-1,-4.382286E-1,1.1827136E0,-3.343525E-2,1.249326E-2,-3.0072486E-2,2.3591606E-2,-3.193128E-2,2.3220774E-2,-3.627514E-3,3.6150765E-2],"categories":[],"categories_nodes":[],"categories_segments":[],"categories_sizes":[],"default_left":[0,0,0,0,0,0,0,0,0,0,0,0,0,0,0],"id":36,"left_children":[1,3,5,7,9,11,13,-1,-1,-1,-1,-1,-1,-1,-1],"loss_changes":[2.4808018E3,6.445142E2,1.2015503E2,1.3721167E2,4.586251E2,3.731977E1,3.4647705E1,0E0,0E0,0E0,0E0,0E0,0E0,0E0,0E0],"parents":[2147483647,0,0,1,1,2,2,3,3,4,4,5,5,6,6],"right_children":[2,4,6,8,10,12,14,-1,-1,-1,-1,-1,-1,-1,-1],"split_conditions":[1E0,6.5983635E-1,-2.966408E0,5E0,3.9E1,3E0,1E0,-3.343525E-2,1.249326E-2,-3.0072486E-2,2.3591606E-2,-3.193128E-2,2.3220774E-2,-3.627514E-3,3.6150765E-2],"split_indices":[17,15,5,3,0,3,3,0,0,0,0,0,0,0,0],"split_type":[0,0,0,0,0,0,0,0,0,0,0,0,0,0,0],"sum_hessian":[3.2800408E3,2.0477738E3,1.232267E3,1.4170889E3,6.3068494E2,4.708104E1,1.1851859E3,1.3563959E3,6.0693058E1,2.184647E2,4.1222025E2,3.1125988E1,1.595505E1,1.9869005E1,1.1653169E3],"tree_param":{"num_deleted":"0","num_feature":"21","num_nodes":"15","size_leaf_vector":"1"}},{"base_weights":[-9.687467E-5,-8.739591E-1,8.471141E-1,-1.1347616E0,-2.4842714E-1,1.0082356E0,-9.110682E-1,-3.4769595E-2,-1.0436747E-2,3.8209765E-3,-3.409228E-2,-1.1192263E-2,3.4735177E-2,-3.6086354E-2,3.2816876E-2],"categories":[],"categories_nodes":[],"categories_segments":[],"categories_sizes":[],"default_left":[1,0,0,0,0,0,0,0,0,0,0,0,0,0,0],"id":37,"left_children":[1,3,5,7,9,11,13,-1,-1,-1,-1,-1,-1,-1,-1],"loss_changes":[2.386209E3,2.5855566E2,4.6450964E2,2.0935913E1,1.5635965E2,3.1032312E2,8.200069E1,0E0,0E0,0E0,0E0,0E0,0E0,0E0,0E0],"parents":[2147483647,0,0,1,1,2,2,3,3,4,4,5,5,6,6],"right_children":[2,4,6,8,10,12,14,-1,-1,-1,-1,-1,-1,-1,-1],"split_conditions":[-7.559215E-1,8E0,5.18979E0,2E0,-1.7455413E-3,4.4E1,6.414932E0,-3.4769595E-2,-1.0436747E-2,3.8209765E-3,-3.409228E-2,-1.1192263E-2,3.4735177E-2,-3.6086354E-2,3.2816876E-2],"split_indices":[5,4,6,1,6,0,5,0,0,0,0,0,0,0,0],"split_type":[0,0,0,0,0,0,0,0,0,0,0,0,0,0,0],"sum_hessian":[3.221101E3,1.5855952E3,1.635506E3,1.118462E3,4.671332E2,1.4985994E3,1.3690652E2,1.084598E3,3.3863956E1,3.288295E2,1.383037E2,1.4629987E2,1.3522996E3,1.1986147E2,1.7045055E1],"tree_param":{"num_deleted":"0","num_feature":"21","num_nodes":"15","size_leaf_vector":"1"}},{"base_weights":[-1.0651437E-4,-6.5956485E-1,1.1045614E0,-1.0324664E0,1.5365902E-1,-4.132177E-1,1.1667972E0,-3.294197E-2,1.1918428E-2,-2.9268205E-2,2.2739893E-2,-3.0816907E-2,2.2772824E-2,-3.225334E-3,3.5677984E-2],"categories":[],"categories_nodes":[],"categories_segments":[],"categories_sizes":[],"default_left":[0,0,0,0,0,0,0,0,0,0,0,0,0,0,0],"id":38,"left_children":[1,3,5,7,9,11,13,-1,-1,-1,-1,-1,-1,-1,-1],"loss_changes":[2.3057563E3,6.011949E2,1.1224536E2,1.2789673E2,4.2657495E2,3.4858086E1,3.267859E1,0E0,0E0,0E0,0E0,0E0,0E0,0E0,0E0],"parents":[2147483647,0,0,1,1,2,2,3,3,4,4,5,5,6,6],"right_children":[2,4,6,8,10,12,14,-1,-1,-1,-1,-1,-1,-1,-1],"split_conditions":[1E0,6.57966E-1,-2.9632874E0,5E0,3.9E1,3E0,1E0,-3.294197E-2,1.1918428E-2,-2.9268205E-2,2.2739893E-2,-3.0816907E-2,2.2772824E-2,-3.225334E-3,3.5677984E-2],"split_indices":[17,15,5,3,0,3,3,0,0,0,0,0,0,0,0],"split_type":[0,0,0,0,0,0,0,0,0,0,0,0,0,0,0],"sum_hessian":[3.1631494E3,1.9809664E3,1.182183E3,1.3579929E3,6.2297345E2,4.6343212E1,1.1358398E3,1.298641E3,5.935198E1,2.1695557E2,4.060179E2,3.0494894E1,1.5848316E1,1.9614902E1,1.1162249E3],"tree_param":{"num_deleted":"0","num_feature":"21","num_nodes":"15","size_leaf_vector":"1"}},{"base_weights":[-1.0163125E-4,-7.564642E-1,9.421E-1,-9.244217E-1,6.2510157E-1,1.0458515E0,-8.805915E-1,-3.272608E-2,-9.499666E-3,2.8152209E-2,-3.0874096E-2,-2.4797065E-2,3.35954E-2,-3.445402E-2,3.568498E-2],"categories":[],"categories_nodes":[],"categories_segments":[],"categories_sizes":[],"default_left":[1,0,0,0,0,0,0,0,0,0,0,0,0,0,0],"id":39,"left_children":[1,3,5,7,9,11,13,-1,-1,-1,-1,-1,-1,-1,-1],"loss_changes":[2.2147334E3,4.005968E2,2.626206E2,1.5518335E2,9.811989E1,1.8239844E2,4.2996346E1,0E0,0E0,0E0,0E0,0E0,0E0,0E0,0E0],"parents":[2147483647,0,0,1,1,2,2,3,3,4,4,5,5,6,6],"right_children":[2,4,6,8,10,12,14,-1,-1,-1,-1,-1,-1,-1,-1],"split_conditions":[1.5807533E-1,1E0,6.0414743E0,6.676673E-1,9.655948E-1,3.4E1,9.346789E0,-3.272608E-2,-9.499666E-3,2.8152209E-2,-3.0874096E-2,-2.4797065E-2,3.35954E-2,-3.445402E-2,3.568498E-2],"split_indices":[5,17,6,15,6,0,5,0,0,0,0,0,0,0,0],"split_type":[0,0,0,0,0,0,0,0,0,0,0,0,0,0,0],"sum_hessian":[3.1057607E3,1.7228896E3,1.3828711E3,1.5364354E3,1.8645424E2,1.3087977E3,7.407335E1,1.2054945E3,3.3094095E2,1.5712767E2,2.9326563E1,4.9368824E1,1.259429E3,6.5980484E1,8.092863E0],"tree_param":{"num_deleted":"0","num_feature":"21","num_nodes":"15","size_leaf_vector":"1"}},{"base_weights":[-9.966588E-5,-6.4327866E-1,1.0874057E0,-9.986529E-1,1.7706583E-1,-4.1751945E-1,1.1508589E0,-3.209871E-2,1.1290107E-2,-2.8760772E-2,2.264781E-2,-3.0447828E-2,2.1683048E-2,-3.11896E-3,3.5209592E-2],"categories":[],"categories_nodes":[],"categories_segments":[],"categories_sizes":[],"default_left":[0,0,0,0,0,0,0,0,0,0,0,0,0,0,0],"id":40,"left_children":[1,3,5,7,9,11,13,-1,-1,-1,-1,-1,-1,-1,-1],"loss_changes":[2.1339717E3,5.5906006E2,1.0875061E2,1.3156067E2,3.8158514E2,3.2481865E1,3.1247437E1,0E0,0E0,0E0,0E0,0E0,0E0,0E0,0E0],"parents":[2147483647,0,0,1,1,2,2,3,3,4,4,5,5,6,6],"right_children":[2,4,6,8,10,12,14,-1,-1,-1,-1,-1,-1,-1,-1],"split_conditions":[1E0,6.683116E-1,-2.9619524E0,2E0,3.9E1,3E0,1E0,-3.209871E-2,1.1290107E-2,-2.8760772E-2,2.264781E-2,-3.0447828E-2,2.1683048E-2,-3.11896E-3,3.5209592E-2],"split_indices":[17,15,5,1,0,3,3,0,0,0,0,0,0,0,0],"split_type":[0,0,0,0,0,0,0,0,0,0,0,0,0,0,0],"sum_hessian":[3.048882E3,1.9160742E3,1.1328077E3,1.3367676E3,5.793067E2,4.5605263E1,1.0872025E3,1.2710742E3,6.569338E1,1.9512967E2,3.8417703E2,2.9998623E1,1.5606641E1,1.9333416E1,1.0678691E3],"tree_param":{"num_deleted":"0","num_feature":"21","num_nodes":"15","size_leaf_vector":"1"}},{"base_weights":[-9.104851E-5,-8.3952886E-1,8.164988E-1,-1.0720475E0,3.2974412E-3,-5.9494007E-1,1.054596E0,-3.331167E-2,1.8413367E-3,-3.155074E-2,2.1735692E-2,-3.57128E-2,-4.5702304E-3,4.9916175E-3,3.311904E-2],"categories":[],"categories_nodes":[],"categories_segments":[],"categories_sizes":[],"default_left":[0,0,0,0,0,0,0,0,0,0,0,0,0,0,0],"id":41,"left_children":[1,3,5,7,9,11,13,-1,-1,-1,-1,-1,-1,-1,-1],"loss_changes":[2.0534692E3,2.8948975E2,5.1093597E2,5.038159E1,2.4455115E2,5.7755707E1,5.6811157E1,0E0,0E0,0E0,0E0,0E0,0E0,0E0,0E0],"parents":[2147483647,0,0,1,1,2,2,3,3,4,4,5,5,6,6],"right_children":[2,4,6,8,10,12,14,-1,-1,-1,-1,-1,-1,-1,-1],"split_conditions":[3E0,6.5908664E-1,4.3E1,2E0,3.7E1,2.9E1,-2.3417904E0,-3.331167E-2,1.8413367E-3,-3.155074E-2,2.1735692E-2,-3.57128E-2,-4.5702304E-3,4.9916175E-3,3.311904E-2],"split_indices":[3,15,0,1,0,0,5,0,0,0,0,0,0,0,0],"split_type":[0,0,0,0,0,0,0,0,0,0,0,0,0,0,0],"sum_hessian":[2.9936816E3,1.4761753E3,1.5175065E3,1.1567732E3,3.1940213E2,2.1882343E2,1.298683E3,1.118942E3,3.78312E1,1.2950607E2,1.8989606E2,9.257735E1,1.26246086E2,6.861752E1,1.2300654E3],"tree_param":{"num_deleted":"0","num_feature":"21","num_nodes":"15","size_leaf_vector":"1"}},{"base_weights":[-1.12471054E-4,-6.2923E-1,1.0732436E0,-9.9206203E-1,1.408774E-1,-9.557356E-1,1.1190668E0,-3.2504864E-2,2.228047E-3,-2.2659793E-2,2.4360863E-2,-3.6030255E-2,1.6121633E-2,-7.6434845E-3,3.4499627E-2],"categories":[],"categories_nodes":[],"categories_segments":[],"categories_sizes":[],"default_left":[0,0,0,0,0,0,0,0,0,0,0,0,0,0,0],"id":42,"left_children":[1,3,5,7,9,11,13,-1,-1,-1,-1,-1,-1,-1,-1],"loss_changes":[1.9859937E3,5.182503E2,1.0211499E2,1.2297986E2,3.5832388E2,9.633312E0,4.546106E1,0E0,0E0,0E0,0E0,0E0,0E0,0E0,0E0],"parents":[2147483647,0,0,1,1,2,2,3,3,4,4,5,5,6,6],"right_children":[2,4,6,8,10,12,14,-1,-1,-1,-1,-1,-1,-1,-1],"split_conditions":[1E0,6.5954655E-1,-3.9705603E0,4E0,4.5E1,6.811271E-1,1E0,-3.2504864E-2,2.228047E-3,-2.2659793E-2,2.4360863E-2,-3.6030255E-2,1.6121633E-2,-7.6434845E-3,3.4499627E-2],"split_indices":[17,15,5,3,0,15,3,0,0,0,0,0,0,0,0],"split_type":[0,0,0,0,0,0,0,0,0,0,0,0,0,0,0],"sum_hessian":[2.9390483E3,1.8532385E3,1.0858099E3,1.2595297E3,5.9370886E2,2.3542189E1,1.0622677E3,1.1600446E3,9.948514E1,2.541762E2,3.3953268E2,2.0388624E1,3.1535647E0,2.3222422E1,1.0390453E3],"tree_param":{"num_deleted":"0","num_feature":"21","num_nodes":"15","size_leaf_vector":"1"}},{"base_weights":[-1.1114784E-4,-7.245544E-1,9.164907E-1,-1.0635196E0,-8.1812456E-2,1.0180506E0,-8.590243E-1,-3.2909397E-2,-5.073697E-3,7.6524173E-3,-3.2063976E-2,-5.3055957E-3,3.3928182E-2,-3.3648416E-2,3.4305844E-2],"categories":[],"categories_nodes":[],"categories_segments":[],"categories_sizes":[],"default_left":[1,0,0,0,0,0,0,0,0,0,0,0,0,0,0],"id":43,"left_children":[1,3,5,7,9,11,13,-1,-1,-1,-1,-1,-1,-1,-1],"loss_changes":[1.917343E3,3.512846E2,2.3072473E2,3.1412354E1,1.857947E2,1.6290125E2,3.7833862E1,0E0,0E0,0E0,0E0,0E0,0E0,0E0,0E0],"parents":[2147483647,0,0,1,1,2,2,3,3,4,4,5,5,6,6],"right_children":[2,4,6,8,10,12,14,-1,-1,-1,-1,-1,-1,-1,-1],"split_conditions":[1.7065799E-1,8E0,6.0363755E0,2E0,1.2243505E-1,4.5E1,9.301863E0,-3.2909397E-2,-5.073697E-3,7.6524173E-3,-3.2063976E-2,-5.3055957E-3,3.3928182E-2,-3.3648416E-2,3.4305844E-2],"split_indices":[5,4,6,1,6,0,5,0,0,0,0,0,0,0,0],"split_type":[0,0,0,0,0,0,0,0,0,0,0,0,0,0,0],"sum_hessian":[2.8854517E3,1.6117793E3,1.2736725E3,1.0548333E3,5.56946E2,1.2051636E3,6.850899E1,1.01657556E3,3.8257664E1,4.1577057E2,1.4117545E2,1.0398113E2,1.1011824E3,6.0955902E1,7.5530844E0],"tree_param":{"num_deleted":"0","num_feature":"21","num_nodes":"15","size_leaf_vector":"1"}},{"base_weights":[-1.1497671E-4,-6.1561507E-1,1.0598121E0,-9.77554E-1,1.2953655E-1,-9.295739E-1,1.1062866E0,-3.203531E-2,1.5044782E-3,-2.6201166E-2,2.1023532E-2,-3.511142E-2,1.5886465E-2,-6.727618E-3,3.410356E-2],"categories":[],"categories_nodes":[],"categories_segments":[],"categories_sizes":[],"default_left":[0,0,0,0,0,0,0,0,0,0,0,0,0,0,0],"id":44,"left_children":[1,3,5,7,9,11,13,-1,-1,-1,-1,-1,-1,-1,-1],"loss_changes":[1.8501665E3,4.840058E2,9.735437E1,1.12117676E2,3.371612E2,9.16745E0,4.1586792E1,0E0,0E0,0E0,0E0,0E0,0E0,0E0,0E0],"parents":[2147483647,0,0,1,1,2,2,3,3,4,4,5,5,6,6],"right_children":[2,4,6,8,10,12,14,-1,-1,-1,-1,-1,-1,-1,-1],"split_conditions":[1E0,6.577031E-1,-3.9604173E0,4E0,4E1,6.7958444E-1,1E0,-3.203531E-2,1.5044782E-3,-2.6201166E-2,2.1023532E-2,-3.511142E-2,1.5886465E-2,-6.727618E-3,3.410356E-2],"split_indices":[17,15,5,3,0,15,3,0,0,0,0,0,0,0,0],"split_type":[0,0,0,0,0,0,0,0,0,0,0,0,0,0,0],"sum_hessian":[2.8340027E3,1.7931431E3,1.0408597E3,1.2067045E3,5.864386E2,2.3326935E1,1.01753284E3,1.1092145E3,9.748997E1,2.126216E2,3.73817E2,2.0192368E1,3.1345673E0,2.2658934E1,9.948739E2],"tree_param":{"num_deleted":"0","num_feature":"21","num_nodes":"15","size_leaf_vector":"1"}},{"base_weights":[-1.2224143E-4,-8.780182E-1,7.275436E-1,-1.0910167E0,-3.4429833E-1,9.2371863E-1,-9.169898E-1,-3.373389E-2,-2.1384956E-2,3.9595016E-3,-2.6979012E-2,-2.703199E-2,3.139725E-2,-3.4762956E-2,3.0256286E-2],"categories":[],"categories_nodes":[],"categories_segments":[],"categories_sizes":[],"default_left":[1,0,0,0,0,0,0,0,0,0,0,0,0,0,0],"id":45,"left_children":[1,3,5,7,9,11,13,-1,-1,-1,-1,-1,-1,-1,-1],"loss_changes":[1.7784707E3,1.4306305E2,4.9195178E2,1.0599976E1,9.5643074E1,3.0595312E2,7.693054E1,0E0,0E0,0E0,0E0,0E0,0E0,0E0,0E0],"parents":[2147483647,0,0,1,1,2,2,3,3,4,4,5,5,6,6],"right_children":[2,4,6,8,10,12,14,-1,-1,-1,-1,-1,-1,-1,-1],"split_conditions":[-1.3978535E0,8E0,4.842604E0,7.0864683E-1,-1.876818E0,3.3E1,6.4375796E0,-3.373389E-2,-2.1384956E-2,3.9595016E-3,-2.6979012E-2,-2.703199E-2,3.139725E-2,-3.4762956E-2,3.0256286E-2],"split_indices":[5,4,6,15,6,0,5,0,0,0,0,0,0,0,0],"split_type":[0,0,0,0,0,0,0,0,0,0,0,0,0,0,0],"sum_hessian":[2.7820156E3,1.2607595E3,1.5212561E3,9.0038654E2,3.6037302E2,1.3595186E3,1.6173753E2,8.2541437E2,7.49722E1,1.9435077E2,1.6602225E2,8.5358345E1,1.2741602E3,1.440486E2,1.7688944E1],"tree_param":{"num_deleted":"0","num_feature":"21","num_nodes":"15","size_leaf_vector":"1"}},{"base_weights":[-1.6277123E-4,-6.0293806E-1,1.0467776E0,-9.5996445E-1,1.2323613E-1,-3.653601E-1,1.1115881E0,-3.0955145E-2,1.034365E-2,-2.8750801E-2,1.8620571E-2,-2.8168824E-2,2.0629462E-2,3.401004E-2,-7.393577E-3],"categories":[],"categories_nodes":[],"categories_segments":[],"categories_sizes":[],"default_left":[0,0,0,0,0,0,0,0,0,0,0,0,0,0,0],"id":46,"left_children":[1,3,5,7,9,11,13,-1,-1,-1,-1,-1,-1,-1,-1],"loss_changes":[1.7242275E3,4.4966125E2,9.177222E1,1.09375E2,3.0856503E2,2.7559978E1,2.8907959E1,0E0,0E0,0E0,0E0,0E0,0E0,0E0,0E0],"parents":[2147483647,0,0,1,1,2,2,3,3,4,4,5,5,6,6],"right_children":[2,4,6,8,10,12,14,-1,-1,-1,-1,-1,-1,-1,-1],"split_conditions":[1E0,6.582565E-1,-2.9517727E0,2E0,3.7E1,3E0,6.151463E0,-3.0955145E-2,1.034365E-2,-2.8750801E-2,1.8620571E-2,-2.8168824E-2,2.0629462E-2,3.401004E-2,-7.393577E-3],"split_indices":[17,15,5,1,0,3,6,0,0,0,0,0,0,0,0],"split_type":[0,0,0,0,0,0,0,0,0,0,0,0,0,0,0],"sum_hessian":[2.7302297E3,1.732924E3,9.973057E2,1.1615308E3,5.713932E2,4.3559612E1,9.5374615E2,1.1010853E3,6.0445335E1,1.7971512E2,3.9167807E2,2.8269049E1,1.5290562E1,9.3865015E2,1.5096006E1],"tree_param":{"num_deleted":"0","num_feature":"21","num_nodes":"15","size_leaf_vector":"1"}},{"base_weights":[-1.6097621E-4,-5.944676E-1,1.0391533E0,-8.225826E-1,5.315324E-1,-3.6124164E-1,1.1046264E0,-3.0393802E-2,-7.200358E-3,2.2127189E-2,-3.1857423E-2,-2.7685687E-2,2.0180989E-2,3.404058E-2,3.2500236E-3],"categories":[],"categories_nodes":[],"categories_segments":[],"categories_sizes":[],"default_left":[0,1,0,0,0,0,0,0,0,0,0,0,0,0,0],"id":47,"left_children":[1,3,5,7,9,11,13,-1,-1,-1,-1,-1,-1,-1,-1],"loss_changes":[1.6568234E3,4.387727E2,8.9871826E1,1.5732257E2,9.5367645E1,2.636766E1,2.7803833E1,0E0,0E0,0E0,0E0,0E0,0E0,0E0,0E0],"parents":[2147483647,0,0,1,1,2,2,3,3,4,4,5,5,6,6],"right_children":[2,4,6,8,10,12,14,-1,-1,-1,-1,-1,-1,-1,-1],"split_conditions":[1E0,1.0278225E0,-2.9478672E0,6.6786486E-1,6.76882E0,3E0,4.7535944E0,-3.0393802E-2,-7.200358E-3,2.2127189E-2,-3.1857423E-2,-2.7685687E-2,2.0180989E-2,3.404058E-2,3.2500236E-3],"split_indices":[17,5,5,15,6,3,6,0,0,0,0,0,0,0,0],"split_type":[0,0,0,0,0,0,0,0,0,0,0,0,0,0,0],"sum_hessian":[2.6803704E3,1.7055316E3,9.748387E2,1.4184408E3,2.870908E2,4.3339405E1,9.3149927E2,1.0682908E3,3.5015E2,2.5469464E2,3.2396164E1,2.8154127E1,1.5185279E1,9.040827E2,2.741657E1],"tree_param":{"num_deleted":"0","num_feature":"21","num_nodes":"15","size_leaf_vector":"1"}},{"base_weights":[-1.457027E-4,-6.8592674E-1,8.815101E-1,-1.0263221E0,-7.2323784E-2,9.7940207E-1,-8.397761E-1,-3.1861246E-2,-3.8934087E-3,7.2018257E-3,-3.0939084E-2,-5.5954223E-3,3.2974556E-2,-3.2943968E-2,3.319389E-2],"categories":[],"categories_nodes":[],"categories_segments":[],"categories_sizes":[],"default_left":[1,0,0,0,0,0,0,0,0,0,0,0,0,0,0],"id":48,"left_children":[1,3,5,7,9,11,13,-1,-1,-1,-1,-1,-1,-1,-1],"loss_changes":[1.5930247E3,3.0946667E2,1.9506024E2,3.0385254E1,1.5897955E2,1.525531E2,3.2676117E1,0E0,0E0,0E0,0E0,0E0,0E0,0E0,0E0],"parents":[2147483647,0,0,1,1,2,2,3,3,4,4,5,5,6,6],"right_children":[2,4,6,8,10,12,14,-1,-1,-1,-1,-1,-1,-1,-1],"split_conditions":[1.3800281E-1,8E0,6.1514606E0,2E0,1.2150674E-1,4.5E1,9.255254E0,-3.1861246E-2,-3.8934087E-3,7.2018257E-3,-3.0939084E-2,-5.5954223E-3,3.2974556E-2,-3.2943968E-2,3.319389E-2],"split_indices":[5,4,6,1,6,0,5,0,0,0,0,0,0,0,0],"split_type":[0,0,0,0,0,0,0,0,0,0,0,0,0,0,0],"sum_hessian":[2.632741E3,1.4809956E3,1.1517454E3,9.521302E2,5.288655E2,1.0901765E3,6.1568893E1,9.1547186E2,3.66583E1,3.9948428E2,1.2938118E2,1.0148948E2,9.88687E2,5.4738346E1,6.8305492E0],"tree_param":{"num_deleted":"0","num_feature":"21","num_nodes":"15","size_leaf_vector":"1"}},{"base_weights":[-1.4999302E-4,-5.811515E-1,1.0275722E0,-9.863894E-1,3.700817E-2,-3.4184748E-1,1.0933399E0,-3.1678252E-2,-1.1175809E-2,-2.7876737E-2,1.028114E-2,-2.678375E-2,1.9742342E-2,3.372022E-2,3.3655488E-3],"categories":[],"categories_nodes":[],"categories_segments":[],"categories_sizes":[],"default_left":[0,0,0,0,0,0,0,0,0,0,0,0,0,0,0],"id":49,"left_children":[1,3,5,7,9,11,13,-1,-1,-1,-1,-1,-1,-1,-1],"loss_changes":[1.5450657E3,4.1413043E2,8.4540344E1,4.223932E1,1.9394508E2,2.4599485E1,2.6711792E1,0E0,0E0,0E0,0E0,0E0,0E0,0E0,0E0],"parents":[2147483647,0,0,1,1,2,2,3,3,4,4,5,5,6,6],"right_children":[2,4,6,8,10,12,14,-1,-1,-1,-1,-1,-1,-1,-1],"split_conditions":[1E0,8E0,-2.9444163E0,7.1318406E-1,-3.0497823E0,3E0,4.7419877E0,-3.1678252E-2,-1.1175809E-2,-2.7876737E-2,1.028114E-2,-2.678375E-2,1.9742342E-2,3.372022E-2,3.3655488E-3],"split_indices":[17,4,5,15,5,3,6,0,0,0,0,0,0,0,0],"split_type":[0,0,0,0,0,0,0,0,0,0,0,0,0,0,0],"sum_hessian":[2.585581E3,1.6520583E3,9.335226E2,9.975279E2,6.5453046E2,4.2586533E1,8.9093604E2,8.953608E2,1.0216709E2,1.5682016E2,4.977103E2,2.7526812E1,1.5059723E1,8.6379144E2,2.7144623E1],"tree_param":{"num_deleted":"0","num_feature":"21","num_nodes":"15","size_leaf_vector":"1"}},{"base_weights":[-1.5934743E-4,-5.721223E-1,1.020336E0,-9.2951816E-1,1.1893344E-1,-8.5245657E-1,1.0670497E0,-3.0749565E-2,2.0594085E-3,-2.4710188E-2,1.9639906E-2,-3.2856755E-2,1.5846098E-2,-7.5379666E-3,3.3010684E-2],"categories":[],"categories_nodes":[],"categories_segments":[],"categories_sizes":[],"default_left":[0,0,0,0,0,0,0,0,0,0,0,0,0,0,0],"id":50,"left_children":[1,3,5,7,9,11,13,-1,-1,-1,-1,-1,-1,-1,-1],"loss_changes":[1.48418E3,4.025617E2,8.080878E1,1.0242761E2,2.8148395E2,8.214586E0,3.942102E1,0E0,0E0,0E0,0E0,0E0,0E0,0E0,0E0],"parents":[2147483647,0,0,1,1,2,2,3,3,4,4,5,5,6,6],"right_children":[2,4,6,8,10,12,14,-1,-1,-1,-1,-1,-1,-1,-1],"split_conditions":[1E0,6.577129E-1,-3.9698653E0,4E0,4E1,6.8101805E-1,1E0,-3.0749565E-2,2.0594085E-3,-2.4710188E-2,1.9639906E-2,-3.2856755E-2,1.5846098E-2,-7.5379666E-3,3.3010684E-2],"split_indices":[17,15,5,3,0,15,3,0,0,0,0,0,0,0,0],"split_type":[0,0,0,0,0,0,0,0,0,0,0,0,0,0,0],"sum_hessian":[2.5407734E3,1.6284858E3,9.122876E2,1.0731406E3,5.553453E2,2.1781977E1,8.905056E2,9.7943756E2,9.370307E1,2.0105519E2,3.5429004E2,1.8700506E1,3.0814695E0,2.17824E1,8.687232E2],"tree_param":{"num_deleted":"0","num_feature":"21","num_nodes":"15","size_leaf_vector":"1"}},{"base_weights":[-1.6569268E-4,-8.471132E-1,6.7994833E-1,-1.0523129E0,-3.478146E-1,8.7470484E-1,-8.849299E-1,-3.269271E-2,-1.892884E-2,3.4416344E-3,-2.7171722E-2,-2.5940858E-2,3.0095128E-2,-3.474823E-2,2.2875564E-2],"categories":[],"categories_nodes":[],"categories_segments":[],"categories_sizes":[],"default_left":[1,0,0,0,0,0,0,0,0,0,0,0,0,0,0],"id":51,"left_children":[1,3,5,7,9,11,13,-1,-1,-1,-1,-1,-1,-1,-1],"loss_changes":[1.4377965E3,1.13533325E2,4.2269562E2,1.1735291E1,8.404776E1,2.760891E2,7.010734E1,0E0,0E0,0E0,0E0,0E0,0E0,0E0,0E0],"parents":[2147483647,0,0,1,1,2,2,3,3,4,4,5,5,6,6],"right_children":[2,4,6,8,10,12,14,-1,-1,-1,-1,-1,-1,-1,-1],"split_conditions":[-1.5269101E0,8E0,4.753318E0,7.134443E-1,-1.8673394E0,3.3E1,4.2660813E0,-3.269271E-2,-1.892884E-2,3.4416344E-3,-2.7171722E-2,-2.5940858E-2,3.0095128E-2,-3.474823E-2,2.2875564E-2],"split_indices":[5,4,6,15,6,0,5,0,0,0,0,0,0,0,0],"split_type":[0,0,0,0,0,0,0,0,0,0,0,0,0,0,0],"sum_hessian":[2.4940842E3,1.1106918E3,1.3833925E3,7.8639496E2,3.2429688E2,1.2306707E3,1.5272173E2,7.20757E2,6.5637924E1,1.7773761E2,1.4655927E2,8.424763E1,1.1464231E3,1.3124286E2,2.147887E1],"tree_param":{"num_deleted":"0","num_feature":"21","num_nodes":"15","size_leaf_vector":"1"}},{"base_weights":[-2.1676777E-4,-5.605638E-1,1.0090103E0,-9.630388E-1,3.189169E-2,-1.4998949E-1,1.0851355E0,-3.1090092E-2,-1.1109983E-2,-2.7971162E-2,9.495016E-3,-2.4882233E-2,2.100028E-2,3.3246465E-2,-2.22277E-3],"categories":[],"categories_nodes":[],"categories_segments":[],"categories_sizes":[],"default_left":[0,0,0,0,0,0,0,0,0,0,0,0,0,0,0],"id":52,"left_children":[1,3,5,7,9,11,13,-1,-1,-1,-1,-1,-1,-1,-1],"loss_changes":[1.3852175E3,3.7558582E2,7.731683E1,4.0362305E1,1.7541225E2,3.2213715E1,2.2039978E1,0E0,0E0,0E0,0E0,0E0,0E0,0E0,0E0],"parents":[2147483647,0,0,1,1,2,2,3,3,4,4,5,5,6,6],"right_children":[2,4,6,8,10,12,14,-1,-1,-1,-1,-1,-1,-1,-1],"split_conditions":[1E0,8E0,-2.4741488E0,7.1010137E-1,-3.1216013E0,5.9954935E-1,5.89399E0,-3.1090092E-2,-1.1109983E-2,-2.7971162E-2,9.495016E-3,-2.4882233E-2,2.100028E-2,3.3246465E-2,-2.22277E-3],"split_indices":[17,4,5,15,5,15,6,0,0,0,0,0,0,0,0],"split_type":[0,0,0,0,0,0,0,0,0,0,0,0,0,0,0],"sum_hessian":[2.447469E3,1.5739943E3,8.7347473E2,9.3690063E2,6.370937E2,5.377552E1,8.196992E2,8.331231E2,1.03777504E2,1.4467027E2,4.924234E2,2.9900099E1,2.3875422E1,8.037408E2,1.5958399E1],"tree_param":{"num_deleted":"0","num_feature":"21","num_nodes":"15","size_leaf_vector":"1"}},{"base_weights":[-2.2596761E-4,-6.410897E-1,8.638738E-1,-9.8863864E-1,-6.399974E-2,9.5727205E-1,-7.9776025E-1,-3.0833922E-2,-1.7616885E-3,6.8627624E-3,-3.0241635E-2,-5.4950737E-3,3.237354E-2,-3.2098737E-2,3.2367606E-2],"categories":[],"categories_nodes":[],"categories_segments":[],"categories_sizes":[],"default_left":[1,0,0,0,0,0,0,0,0,0,0,0,0,0,0],"id":53,"left_children":[1,3,5,7,9,11,13,-1,-1,-1,-1,-1,-1,-1,-1],"loss_changes":[1.3330668E3,2.7715356E2,1.5985138E2,3.1349854E1,1.4411163E2,1.3512506E2,2.9300053E1,0E0,0E0,0E0,0E0,0E0,0E0,0E0,0E0],"parents":[2147483647,0,0,1,1,2,2,3,3,4,4,5,5,6,6],"right_children":[2,4,6,8,10,12,14,-1,-1,-1,-1,-1,-1,-1,-1],"split_conditions":[2.4216652E-1,8E0,6.1473837E0,2E0,1.3322288E-1,4.5E1,9.204539E0,-3.0833922E-2,-1.7616885E-3,6.8627624E-3,-3.0241635E-2,-5.4950737E-3,3.237354E-2,-3.2098737E-2,3.2367606E-2],"split_indices":[5,4,6,1,6,0,5,0,0,0,0,0,0,0,0],"split_type":[0,0,0,0,0,0,0,0,0,0,0,0,0,0,0],"sum_hessian":[2.405256E3,1.3811659E3,1.0240903E3,8.6157465E2,5.1959125E2,9.699922E2,5.4098118E1,8.266587E2,3.491597E1,3.9718033E2,1.22410934E2,9.358277E1,8.7640936E2,4.7620945E1,6.4771733E0],"tree_param":{"num_deleted":"0","num_feature":"21","num_nodes":"15","size_leaf_vector":"1"}},{"base_weights":[-2.277154E-4,-5.476272E-1,9.986236E-1,-9.034059E-1,1.0957625E-1,-3.984945E-2,1.0841286E0,-2.9376786E-2,1.0781935E-2,-2.8647302E-2,1.6484408E-2,-2.3297692E-2,2.4100618E-2,-3.553022E-3,3.3338856E-2],"categories":[],"categories_nodes":[],"categories_segments":[],"categories_sizes":[],"default_left":[0,0,0,0,0,0,0,0,0,0,0,0,0,0,0],"id":54,"left_children":[1,3,5,7,9,11,13,-1,-1,-1,-1,-1,-1,-1,-1],"loss_changes":[1.2927905E3,3.5722662E2,7.436804E1,9.523981E1,2.5214247E2,4.0780476E1,2.5398376E1,0E0,0E0,0E0,0E0,0E0,0E0,0E0,0E0],"parents":[2147483647,0,0,1,1,2,2,3,3,4,4,5,5,6,6],"right_children":[2,4,6,8,10,12,14,-1,-1,-1,-1,-1,-1,-1,-1],"split_conditions":[1E0,6.567717E-1,2E0,2E0,3.6E1,5.95751E-1,3.7E1,-2.9376786E-2,1.0781935E-2,-2.8647302E-2,1.6484408E-2,-2.3297692E-2,2.4100618E-2,-3.553022E-3,3.3338856E-2],"split_indices":[17,15,3,1,0,15,0,0,0,0,0,0,0,0,0],"split_type":[0,0,0,0,0,0,0,0,0,0,0,0,0,0,0],"sum_hessian":[2.3624104E3,1.5263682E3,8.360423E2,9.9003546E2,5.363327E2,6.3641308E1,7.72401E2,9.341712E2,5.586425E1,1.5648857E2,3.7984415E2,3.4007023E1,2.9634285E1,1.6989344E1,7.554116E2],"tree_param":{"num_deleted":"0","num_feature":"21","num_nodes":"15","size_leaf_vector":"1"}},{"base_weights":[-2.1795096E-4,-7.9870665E-1,6.7191386E-1,-1.0251687E0,-2.9957372E-1,8.5392505E-1,-8.886692E-1,-3.196843E-2,-1.7767563E-2,6.875947E-6,-3.1826634E-2,-2.4701674E-2,2.9295025E-2,-3.3551253E-2,2.8212575E-2],"categories":[],"categories_nodes":[],"categories_segments":[],"categories_sizes":[],"default_left":[1,0,0,0,0,0,0,0,0,0,0,0,0,0,0],"id":55,"left_children":[1,3,5,7,9,11,13,-1,-1,-1,-1,-1,-1,-1,-1],"loss_changes":[1.2458141E3,1.19614075E2,3.5875916E2,1.2140198E1,7.589886E1,2.3297314E2,5.6568077E1,0E0,0E0,0E0,0E0,0E0,0E0,0E0,0E0],"parents":[2147483647,0,0,1,1,2,2,3,3,4,4,5,5,6,6],"right_children":[2,4,6,8,10,12,14,-1,-1,-1,-1,-1,-1,-1,-1],"split_conditions":[-1.3984823E0,8E0,5.026298E0,7.1389097E-1,-2.9235432E-1,3.3E1,6.436486E0,-3.196843E-2,-1.7767563E-2,6.875947E-6,-3.1826634E-2,-2.4701674E-2,2.9295025E-2,-3.3551253E-2,2.8212575E-2],"split_indices":[5,4,6,15,6,0,5,0,0,0,0,0,0,0,0],"split_type":[0,0,0,0,0,0,0,0,0,0,0,0,0,0,0],"sum_hessian":[2.3192937E3,1.059923E3,1.2593707E3,7.2839044E2,3.315325E2,1.1282369E3,1.3113374E2,6.648176E2,6.3572823E1,2.3858014E2,9.2952354E1,7.644565E1,1.0517913E3,1.1684796E2,1.4285785E1],"tree_param":{"num_deleted":"0","num_feature":"21","num_nodes":"15","size_leaf_vector":"1"}},{"base_weights":[-2.7194674E-4,-5.3642565E-1,9.8885936E-1,-8.87499E-1,1.03744686E-1,-3.5548583E-2,1.0748721E0,-2.8919894E-2,1.0495554E-2,-1.9674063E-2,2.0789737E-2,-2.2020794E-2,2.4555491E-2,-3.1820592E-3,3.308319E-2],"categories":[],"categories_nodes":[],"categories_segments":[],"categories_sizes":[],"default_left":[0,0,0,0,0,0,0,0,0,0,0,0,0,0,0],"id":56,"left_children":[1,3,5,7,9,11,13,-1,-1,-1,-1,-1,-1,-1,-1],"loss_changes":[1.2082048E3,3.3213455E2,7.060034E1,9.0661194E1,2.3504565E2,3.818278E1,2.4460571E1,0E0,0E0,0E0,0E0,0E0,0E0,0E0,0E0],"parents":[2147483647,0,0,1,1,2,2,3,3,4,4,5,5,6,6],"right_children":[2,4,6,8,10,12,14,-1,-1,-1,-1,-1,-1,-1,-1],"split_conditions":[1E0,6.5779155E-1,2E0,2E0,4.5E1,6.0344034E-1,3.7E1,-2.8919894E-2,1.0495554E-2,-1.9674063E-2,2.0789737E-2,-2.2020794E-2,2.4555491E-2,-3.1820592E-3,3.308319E-2],"split_indices":[17,15,3,1,0,15,0,0,0,0,0,0,0,0,0],"split_type":[0,0,0,0,0,0,0,0,0,0,0,0,0,0,0],"sum_hessian":[2.2762285E3,1.4764071E3,7.998214E2,9.5325165E2,5.2315546E2,6.1999332E1,7.378221E2,8.979576E2,5.5294067E1,2.2850127E2,2.9465417E2,3.4183594E1,2.7815739E1,1.6964695E1,7.2085736E2],"tree_param":{"num_deleted":"0","num_feature":"21","num_nodes":"15","size_leaf_vector":"1"}},{"base_weights":[-2.4047999E-4,-5.2862227E-1,9.8270226E-1,-7.36068E-1,5.3891057E-1,-2.99367E-1,1.0516956E0,-1.193761E-2,-3.2106813E-2,-1.5111512E-2,2.4692357E-2,-2.1013686E-2,2.720303E-2,3.23157E-2,-8.029083E-3],"categories":[],"categories_nodes":[],"categories_segments":[],"categories_sizes":[],"default_left":[0,1,0,0,0,0,0,0,0,0,0,0,0,0,0],"id":57,"left_children":[1,3,5,7,9,11,13,-1,-1,-1,-1,-1,-1,-1,-1],"loss_changes":[1.161704E3,3.2255966E2,6.948651E1,1.3725653E2,7.071438E1,2.033042E1,2.525592E1,0E0,0E0,0E0,0E0,0E0,0E0,0E0,0E0],"parents":[2147483647,0,0,1,1,2,2,3,3,4,4,5,5,6,6],"right_children":[2,4,6,8,10,12,14,-1,-1,-1,-1,-1,-1,-1,-1],"split_conditions":[1E0,1.2200686E0,-2.955948E0,-5.2303576E-1,4.5E1,6.8070555E-1,6.1344056E0,-1.193761E-2,-3.2106813E-2,-1.5111512E-2,2.4692357E-2,-2.1013686E-2,2.720303E-2,3.23157E-2,-8.029083E-3],"split_indices":[17,5,5,6,0,15,6,0,0,0,0,0,0,0,0],"split_type":[0,0,0,0,0,0,0,0,0,0,0,0,0,0,0],"sum_hessian":[2.23476E3,1.453755E3,7.810051E2,1.2174813E3,2.3627364E2,3.9712254E1,7.4129285E2,6.062182E2,6.112632E2,5.0438713E1,1.8583492E2,3.011653E1,9.595723E0,7.2741986E2,1.3872988E1],"tree_param":{"num_deleted":"0","num_feature":"21","num_nodes":"15","size_leaf_vector":"1"}},{"base_weights":[-2.0616116E-4,-7.7678466E-1,6.536819E-1,-1.0078849E0,-2.805617E-1,8.3886695E-1,-8.465573E-1,-3.1529866E-2,-1.6911427E-2,5.5525317E-3,-2.290876E-2,-7.7235843E-3,3.0757258E-2,-3.3972643E-2,2.304319E-2],"categories":[],"categories_nodes":[],"categories_segments":[],"categories_sizes":[],"default_left":[1,0,0,0,0,0,0,0,0,0,0,0,0,0,0],"id":58,"left_children":[1,3,5,7,9,11,13,-1,-1,-1,-1,-1,-1,-1,-1],"loss_changes":[1.116625E3,1.1498865E2,3.323698E2,1.2532043E1,7.229489E1,2.1748798E2,6.164267E1,0E0,0E0,0E0,0E0,0E0,0E0,0E0,0E0],"parents":[2147483647,0,0,1,1,2,2,3,3,4,4,5,5,6,6],"right_children":[2,4,6,8,10,12,14,-1,-1,-1,-1,-1,-1,-1,-1],"split_conditions":[-1.4134647E0,8E0,4.7235293E0,7.1397215E-1,-2.1849458E0,4.4E1,4.2981257E0,-3.1529866E-2,-1.6911427E-2,5.5525317E-3,-2.290876E-2,-7.7235843E-3,3.0757258E-2,-3.3972643E-2,2.304319E-2],"split_indices":[5,4,6,15,6,0,5,0,0,0,0,0,0,0,0],"split_type":[0,0,0,0,0,0,0,0,0,0,0,0,0,0,0],"sum_hessian":[2.1969666E3,1.00418097E3,1.1927855E3,6.844082E2,3.1977274E2,1.0621213E3,1.3066425E2,6.22612E2,6.179621E1,1.6313586E2,1.5663689E2,1.5427039E2,9.0785095E2,1.1126438E2,1.9399864E1],"tree_param":{"num_deleted":"0","num_feature":"21","num_nodes":"15","size_leaf_vector":"1"}},{"base_weights":[-2.2515973E-4,-5.1627797E-1,9.7295624E-1,-9.8562896E-1,-5.062793E-2,-4.2712077E-2,1.0611594E0,-3.074271E-2,-1.0717778E-2,-2.6775599E-2,7.7549233E-3,-2.6257487E-2,1.876938E-2,-3.0345968E-3,3.2717645E-2],"categories":[],"categories_nodes":[],"categories_segments":[],"categories_sizes":[],"default_left":[0,0,0,0,0,0,0,0,0,0,0,0,0,0,0],"id":59,"left_children":[1,3,5,7,9,11,13,-1,-1,-1,-1,-1,-1,-1,-1],"loss_changes":[1.0838693E3,3.0818158E2,6.704242E1,1.6901733E1,1.8475035E2,3.4333046E1,2.3648499E1,0E0,0E0,0E0,0E0,0E0,0E0,0E0,0E0],"parents":[2147483647,0,0,1,1,2,2,3,3,4,4,5,5,6,6],"right_children":[2,4,6,8,10,12,14,-1,-1,-1,-1,-1,-1,-1,-1],"split_conditions":[1E0,7E0,2E0,7.4718744E-1,-3.0957518E0,5.487302E-1,3.7E1,-3.074271E-2,-1.0717778E-2,-2.6775599E-2,7.7549233E-3,-2.6257487E-2,1.876938E-2,-3.0345968E-3,3.2717645E-2],"split_indices":[17,4,3,15,5,15,0,0,0,0,0,0,0,0,0],"split_type":[0,0,0,0,0,0,0,0,0,0,0,0,0,0,0],"sum_hessian":[2.1561863E3,1.4093265E3,7.4685974E2,7.0131793E2,7.080086E2,5.9717888E1,6.8714185E2,6.596135E2,4.1704384E1,1.8964096E2,5.183677E2,2.6454899E1,3.326299E1,1.6908035E1,6.702338E2],"tree_param":{"num_deleted":"0","num_feature":"21","num_nodes":"15","size_leaf_vector":"1"}},{"base_weights":[-2.4047366E-4,-5.079128E-1,9.669109E-1,-9.076313E-1,3.7605476E-2,-4.195858E-2,1.0559362E0,-2.9278697E-2,1.2736537E-2,-2.7143087E-2,1.396178E-2,-2.5793156E-2,1.8348636E-2,-2.9476094E-3,3.257786E-2],"categories":[],"categories_nodes":[],"categories_segments":[],"categories_sizes":[],"default_left":[0,0,0,0,0,0,0,0,0,0,0,0,0,0,0],"id":60,"left_children":[1,3,5,7,9,11,13,-1,-1,-1,-1,-1,-1,-1,-1],"loss_changes":[1.0416406E3,3.0339368E2,6.563342E1,7.3499756E1,2.3797798E2,3.2691036E1,2.3337952E1,0E0,0E0,0E0,0E0,0E0,0E0,0E0,0E0],"parents":[2147483647,0,0,1,1,2,2,3,3,4,4,5,5,6,6],"right_children":[2,4,6,8,10,12,14,-1,-1,-1,-1,-1,-1,-1,-1],"split_conditions":[1E0,6.2482977E-1,2E0,5E0,3.6E1,5.49371E-1,3.7E1,-2.9278697E-2,1.2736537E-2,-2.7143087E-2,1.396178E-2,-2.5793156E-2,1.8348636E-2,-2.9476094E-3,3.257786E-2],"split_indices":[17,15,3,3,0,15,0,0,0,0,0,0,0,0,0],"split_type":[0,0,0,0,0,0,0,0,0,0,0,0,0,0,0],"sum_hessian":[2.1194846E3,1.3902148E3,7.292699E2,8.0194244E2,5.8827234E2,5.9177372E1,6.700925E2,7.630731E2,3.8869305E1,1.8332018E2,4.0495215E2,2.6145931E1,3.303144E1,1.6914217E1,6.531783E2],"tree_param":{"num_deleted":"0","num_feature":"21","num_nodes":"15","size_leaf_vector":"1"}},{"base_weights":[-2.4229333E-4,-5.898513E-1,8.205747E-1,-9.361619E-1,-6.2228996E-2,9.1330504E-1,-7.726593E-1,-3.027367E-2,-1.0235422E-2,6.0258475E-3,-2.9289937E-2,-3.7881883E-3,3.1395588E-2,-3.1107495E-2,3.0693272E-2],"categories":[],"categories_nodes":[],"categories_segments":[],"categories_sizes":[],"default_left":[1,0,0,0,0,0,0,0,0,0,0,0,0,0,0],"id":61,"left_children":[1,3,5,7,9,11,13,-1,-1,-1,-1,-1,-1,-1,-1],"loss_changes":[1.0082073E3,2.2146744E2,1.2936902E2,3.1426575E1,1.1599123E2,1.1416632E2,2.4048168E1,0E0,0E0,0E0,0E0,0E0,0E0,0E0,0E0],"parents":[2147483647,0,0,1,1,2,2,3,3,4,4,5,5,6,6],"right_children":[2,4,6,8,10,12,14,-1,-1,-1,-1,-1,-1,-1,-1],"split_conditions":[2.2293992E-1,8E0,6.1344056E0,7.1087265E-1,1.3074626E-1,4.6E1,9.41539E0,-3.027367E-2,-1.0235422E-2,6.0258475E-3,-2.9289937E-2,-3.7881883E-3,3.1395588E-2,-3.1107495E-2,3.0693272E-2],"split_indices":[5,4,6,15,6,0,5,0,0,0,0,0,0,0,0],"split_type":[0,0,0,0,0,0,0,0,0,0,0,0,0,0,0],"sum_hessian":[2.0812402E3,1.2113702E3,8.698698E2,7.308771E2,4.8049323E2,8.224291E2,4.7440746E1,6.50422E2,8.0455086E1,3.7371378E2,1.0677945E2,9.3423584E1,7.290055E2,4.1723488E1,5.717261E0],"tree_param":{"num_deleted":"0","num_feature":"21","num_nodes":"15","size_leaf_vector":"1"}},{"base_weights":[-2.5156484E-4,-4.9685538E-1,9.5820093E-1,-9.529718E-1,-2.889009E-2,-2.7776507E-1,1.030515E0,-2.1402115E-2,-3.2481425E-2,1.0321736E-2,-3.0587345E-2,-2.0015467E-2,2.6050594E-2,3.1952538E-2,1.2055922E-3],"categories":[],"categories_nodes":[],"categories_segments":[],"categories_sizes":[],"default_left":[0,1,0,0,0,0,0,0,0,0,0,0,0,0,0],"id":62,"left_children":[1,3,5,7,9,11,13,-1,-1,-1,-1,-1,-1,-1,-1],"loss_changes":[9.7415466E2,2.8773038E2,6.271814E1,2.044696E1,2.4659215E2,1.8163233E1,2.255658E1,0E0,0E0,0E0,0E0,0E0,0E0,0E0,0E0],"parents":[2147483647,0,0,1,1,2,2,3,3,4,4,5,5,6,6],"right_children":[2,4,6,8,10,12,14,-1,-1,-1,-1,-1,-1,-1,-1],"split_conditions":[1E0,-2.6357963E0,-2.9368525E0,-1.8855238E0,3.0941744E0,6.799901E-1,4.7929616E0,-2.1402115E-2,-3.2481425E-2,1.0321736E-2,-3.0587345E-2,-2.0015467E-2,2.6050594E-2,3.1952538E-2,1.2055922E-3],"split_indices":[17,5,5,6,6,15,6,0,0,0,0,0,0,0,0],"split_type":[0,0,0,0,0,0,0,0,0,0,0,0,0,0,0],"sum_hessian":[2.044667E3,1.347149E3,6.975179E2,6.8168646E2,6.654626E2,3.839764E1,6.5912024E2,2.4176625E2,4.399202E2,4.8393594E2,1.8152666E2,2.8971764E1,9.425877E0,6.368153E2,2.2304968E1],"tree_param":{"num_deleted":"0","num_feature":"21","num_nodes":"15","size_leaf_vector":"1"}},{"base_weights":[-2.728978E-4,-4.889923E-1,9.518924E-1,-9.4535315E-1,-2.4712432E-2,-4.6776876E-2,1.0432452E0,-2.119437E-2,-3.2319512E-2,1.013779E-2,-3.025152E-2,-2.5165292E-2,1.7564388E-2,-2.9384692E-3,3.2249596E-2],"categories":[],"categories_nodes":[],"categories_segments":[],"categories_sizes":[],"default_left":[0,1,0,0,0,0,0,0,0,0,0,0,0,0,0],"id":63,"left_children":[1,3,5,7,9,11,13,-1,-1,-1,-1,-1,-1,-1,-1],"loss_changes":[9.361719E2,2.816559E2,6.2301453E1,2.0371948E1,2.3578354E2,2.9609276E1,2.2752502E1,0E0,0E0,0E0,0E0,0E0,0E0,0E0,0E0],"parents":[2147483647,0,0,1,1,2,2,3,3,4,4,5,5,6,6],"right_children":[2,4,6,8,10,12,14,-1,-1,-1,-1,-1,-1,-1,-1],"split_conditions":[1E0,-2.624536E0,2E0,-1.8694996E0,3.0762343E0,5.486877E-1,3.7E1,-2.119437E-2,-3.2319512E-2,1.013779E-2,-3.025152E-2,-2.5165292E-2,1.7564388E-2,-2.9384692E-3,3.2249596E-2],"split_indices":[17,5,3,6,6,15,0,0,0,0,0,0,0,0,0],"split_type":[0,0,0,0,0,0,0,0,0,0,0,0,0,0,0],"sum_hessian":[2.0097942E3,1.3284335E3,6.813608E2,6.6940753E2,6.5902594E2,5.7144554E1,6.242162E2,2.4047179E2,4.2893576E2,4.81992E2,1.7703392E2,2.522141E1,3.1923141E1,1.683576E1,6.0738043E2],"tree_param":{"num_deleted":"0","num_feature":"21","num_nodes":"15","size_leaf_vector":"1"}},{"base_weights":[-3.0048302E-4,-5.419059E-1,8.4433883E-1,-9.080899E-1,-2.755273E-2,-2.2991365E-1,9.687946E-1,-3.0265424E-2,-1.3344461E-2,-1.3952974E-2,1.5469177E-2,-1.6617939E-2,3.0799255E-2,3.1497363E-2,-2.1892982E-2],"categories":[],"categories_nodes":[],"categories_segments":[],"categories_sizes":[],"default_left":[1,0,0,0,0,0,0,0,0,0,0,0,0,0,0],"id":64,"left_children":[1,3,5,7,9,11,13,-1,-1,-1,-1,-1,-1,-1,-1],"loss_changes":[9.0458136E2,2.2690164E2,1.03512634E2,3.2401184E1,1.19569046E2,3.3555656E1,9.618762E1,0E0,0E0,0E0,0E0,0E0,0E0,0E0,0E0],"parents":[2147483647,0,0,1,1,2,2,3,3,4,4,5,5,6,6],"right_children":[2,4,6,8,10,12,14,-1,-1,-1,-1,-1,-1,-1,-1],"split_conditions":[6.185795E-1,8E0,4.5E1,6.6719073E-1,1E0,1E0,6.7217145E0,-3.0265424E-2,-1.3344461E-2,-1.3952974E-2,1.5469177E-2,-1.6617939E-2,3.0799255E-2,3.1497363E-2,-2.1892982E-2],"split_indices":[5,4,0,15,19,17,6,0,0,0,0,0,0,0,0],"split_type":[0,0,0,0,0,0,0,0,0,0,0,0,0,0,0],"sum_hessian":[1.9753947E3,1.2038269E3,7.7156775E2,7.027511E2,5.0107584E2,8.0019966E1,6.915478E2,5.762458E2,1.2650531E2,2.776056E2,2.2347025E2,6.40604E1,1.5959561E1,6.6039154E2,3.1156204E1],"tree_param":{"num_deleted":"0","num_feature":"21","num_nodes":"15","size_leaf_vector":"1"}},{"base_weights":[-2.8433313E-4,-4.767886E-1,9.4248205E-1,-8.781315E-1,4.2717624E-2,-4.474692E-2,1.0352335E0,-2.8596675E-2,1.1089816E-2,-2.6228337E-2,1.3544017E-2,-2.0613234E-2,2.1339918E-2,-2.7205474E-3,3.2042406E-2],"categories":[],"categories_nodes":[],"categories_segments":[],"categories_sizes":[],"default_left":[0,0,0,0,0,0,0,0,0,0,0,0,0,0,0],"id":65,"left_children":[1,3,5,7,9,11,13,-1,-1,-1,-1,-1,-1,-1,-1],"loss_changes":[8.734894E2,2.6933472E2,5.9822388E1,6.86311E1,2.117496E2,2.8183744E1,2.2167786E1,0E0,0E0,0E0,0E0,0E0,0E0,0E0,0E0],"parents":[2147483647,0,0,1,1,2,2,3,3,4,4,5,5,6,6],"right_children":[2,4,6,8,10,12,14,-1,-1,-1,-1,-1,-1,-1,-1],"split_conditions":[1E0,6.252633E-1,2E0,2E0,3.6E1,5.964862E-1,3.7E1,-2.8596675E-2,1.1089816E-2,-2.6228337E-2,1.3544017E-2,-2.0613234E-2,2.1339918E-2,-2.7205474E-3,3.2042406E-2],"split_indices":[17,15,3,1,0,15,0,0,0,0,0,0,0,0,0],"split_type":[0,0,0,0,0,0,0,0,0,0,0,0,0,0,0],"sum_hessian":[1.9424049E3,1.2905925E3,6.5181244E2,7.277112E2,5.6288135E2,5.602373E1,5.957887E2,6.866267E2,4.1084484E1,1.7319467E2,3.8968665E2,3.033902E1,2.5684711E1,1.6838541E1,5.789502E2],"tree_param":{"num_deleted":"0","num_feature":"21","num_nodes":"15","size_leaf_vector":"1"}},{"base_weights":[-2.8023776E-4,-5.275419E-1,8.354119E-1,-9.455941E-1,-7.816078E-2,-2.1763039E-1,9.6080464E-1,-2.920542E-2,1.7526971E-2,-2.7545355E-2,1.1765178E-2,-1.5919846E-2,3.0215975E-2,3.1263415E-2,-2.144074E-2],"categories":[],"categories_nodes":[],"categories_segments":[],"categories_sizes":[],"default_left":[1,0,0,0,0,0,0,0,0,0,0,0,0,0,0],"id":66,"left_children":[1,3,5,7,9,11,13,-1,-1,-1,-1,-1,-1,-1,-1],"loss_changes":[8.416269E2,2.1994366E2,9.777777E1,2.6479675E1,2.2378874E2,3.0992569E1,9.07229E1,0E0,0E0,0E0,0E0,0E0,0E0,0E0,0E0],"parents":[2147483647,0,0,1,1,2,2,3,3,4,4,5,5,6,6],"right_children":[2,4,6,8,10,12,14,-1,-1,-1,-1,-1,-1,-1,-1],"split_conditions":[6.221957E-1,2E0,4.5E1,1E0,3.5E1,1E0,6.7270985E0,-2.920542E-2,1.7526971E-2,-2.7545355E-2,1.1765178E-2,-1.5919846E-2,3.0215975E-2,3.1263415E-2,-2.144074E-2],"split_indices":[5,3,0,18,0,17,6,0,0,0,0,0,0,0,0],"split_type":[0,0,0,0,0,0,0,0,0,0,0,0,0,0,0],"sum_hessian":[1.9080602E3,1.170149E3,7.3791113E2,6.056335E2,5.645156E2,7.8440025E1,6.594711E2,5.951357E2,1.0497801E1,2.022837E2,3.622319E2,6.2924965E1,1.5515062E1,6.2930975E2,3.0161398E1],"tree_param":{"num_deleted":"0","num_feature":"21","num_nodes":"15","size_leaf_vector":"1"}},{"base_weights":[-2.7433978E-4,-4.654573E-1,9.333675E-1,-9.7730184E-1,-6.292071E-2,-2.720127E-1,1.0093011E0,-2.3603998E-2,-3.1886216E-2,8.7411795E-3,-3.0229045E-2,9.244314E-3,-2.9609978E-2,3.1565204E-2,3.758148E-3],"categories":[],"categories_nodes":[],"categories_segments":[],"categories_sizes":[],"default_left":[0,1,0,0,0,0,0,0,0,0,0,0,0,0,0],"id":67,"left_children":[1,3,5,7,9,11,13,-1,-1,-1,-1,-1,-1,-1,-1],"loss_changes":[8.147771E2,2.579238E2,5.737683E1,8.14856E0,2.3525015E2,1.5967044E1,2.2119934E1,0E0,0E0,0E0,0E0,0E0,0E0,0E0,0E0],"parents":[2147483647,0,0,1,1,2,2,3,3,4,4,5,5,6,6],"right_children":[2,4,6,8,10,12,14,-1,-1,-1,-1,-1,-1,-1,-1],"split_conditions":[1E0,-3.0861702E0,-2.9462454E0,-2.1344366E0,3.0474932E0,-1.4700044E0,4.178529E0,-2.3603998E-2,-3.1886216E-2,8.7411795E-3,-3.0229045E-2,9.244314E-3,-2.9609978E-2,3.1565204E-2,3.758148E-3],"split_indices":[17,5,5,6,6,6,6,0,0,0,0,0,0,0,0],"split_type":[0,0,0,0,0,0,0,0,0,0,0,0,0,0,0],"sum_hessian":[1.8740077E3,1.2511361E3,6.228716E2,5.501571E2,7.00979E2,3.6759766E1,5.861118E2,1.7368686E2,3.764702E2,5.1029584E2,1.9068317E2,2.0607437E1,1.6152327E1,5.5882074E2,2.72911E1],"tree_param":{"num_deleted":"0","num_feature":"21","num_nodes":"15","size_leaf_vector":"1"}},{"base_weights":[-3.1700922E-4,-7.227155E-1,5.890165E-1,-2.8618523E-1,-9.859927E-1,7.663647E-1,-8.0449986E-1,-2.775416E-2,7.569196E-3,-3.050516E-2,2.6868919E-2,-2.7988918E-2,2.6707677E-2,-3.302754E-2,2.189426E-2],"categories":[],"categories_nodes":[],"categories_segments":[],"categories_sizes":[],"default_left":[1,0,0,0,0,0,0,0,0,0,0,0,0,0,0],"id":68,"left_children":[1,3,5,7,9,11,13,-1,-1,-1,-1,-1,-1,-1,-1],"loss_changes":[7.854079E2,9.497571E1,2.5170575E2,1.0800745E2,3.0895233E1,1.906878E2,5.3192207E1,0E0,0E0,0E0,0E0,0E0,0E0,0E0,0E0],"parents":[2147483647,0,0,1,1,2,2,3,3,4,4,5,5,6,6],"right_children":[2,4,6,8,10,12,14,-1,-1,-1,-1,-1,-1,-1,-1],"split_conditions":[-1.5450236E0,-2.3789898E-1,4.6628737E0,3.7E1,1E0,3.1E1,4.2083516E0,-2.775416E-2,7.569196E-3,-3.050516E-2,2.6868919E-2,-2.7988918E-2,2.6707677E-2,-3.302754E-2,2.189426E-2],"split_indices":[5,9,6,0,18,0,5,0,0,0,0,0,0,0,0],"split_type":[0,0,0,0,0,0,0,0,0,0,0,0,0,0,0],"sum_hessian":[1.8428342E3,8.2784485E2,1.0149894E3,3.1223184E2,5.1561304E2,9.0079785E2,1.1419151E2,1.4246745E2,1.6976437E2,5.0774893E2,7.864075E0,6.076715E1,8.400307E2,9.593917E1,1.8252342E1],"tree_param":{"num_deleted":"0","num_feature":"21","num_nodes":"15","size_leaf_vector":"1"}},{"base_weights":[-3.707502E-4,-4.549229E-1,9.239116E-1,-9.0161526E-1,-6.5439255E-3,-5.1302996E-2,1.0196954E0,-2.9099483E-2,7.2711185E-3,-1.3346609E-2,2.342399E-2,1.3808199E-2,-2.8592845E-2,-2.658026E-3,3.1650014E-2],"categories":[],"categories_nodes":[],"categories_segments":[],"categories_sizes":[],"default_left":[0,0,0,0,0,0,0,0,0,0,0,0,0,0,0],"id":69,"left_children":[1,3,5,7,9,11,13,-1,-1,-1,-1,-1,-1,-1,-1],"loss_changes":[7.613055E2,2.4327988E2,5.5852448E1,4.7825134E1,2.099097E2,2.5524836E1,2.1378967E1,0E0,0E0,0E0,0E0,0E0,0E0,0E0,0E0],"parents":[2147483647,0,0,1,1,2,2,3,3,4,4,5,5,6,6],"right_children":[2,4,6,8,10,12,14,-1,-1,-1,-1,-1,-1,-1,-1],"split_conditions":[1E0,5.962865E-1,2E0,2E0,1E0,2.58313E0,3.7E1,-2.9099483E-2,7.2711185E-3,-1.3346609E-2,2.342399E-2,1.3808199E-2,-2.8592845E-2,-2.658026E-3,3.1650014E-2],"split_indices":[17,15,3,1,19,6,0,0,0,0,0,0,0,0,0],"split_type":[0,0,0,0,0,0,0,0,0,0,0,0,0,0,0],"sum_hessian":[1.8100513E3,1.2136829E3,5.963684E2,6.074786E2,6.062042E2,5.3377254E1,5.4299115E2,5.7336487E2,3.411368E1,3.8968646E2,2.1651778E2,3.4369453E1,1.9007801E1,1.6716547E1,5.2627466E2],"tree_param":{"num_deleted":"0","num_feature":"21","num_nodes":"15","size_leaf_vector":"1"}},{"base_weights":[-3.4649443E-4,-5.061808E-1,8.1475E-1,-1.3785712E-1,-1.0116687E0,-2.2413269E-1,9.4691133E-1,-2.8487828E-2,1.7479897E-2,-3.1188365E-2,2.17724E-2,-1.5461987E-2,2.8957294E-2,3.0673584E-2,-2.4798822E-2],"categories":[],"categories_nodes":[],"categories_segments":[],"categories_sizes":[],"default_left":[1,0,0,0,0,0,0,0,0,0,0,0,0,0,0],"id":70,"left_children":[1,3,5,7,9,11,13,-1,-1,-1,-1,-1,-1,-1,-1],"loss_changes":[7.350122E2,2.046683E2,9.394177E1,3.7341693E2,2.325821E1,2.7467495E1,8.200903E1,0E0,0E0,0E0,0E0,0E0,0E0,0E0,0E0],"parents":[2147483647,0,0,1,1,2,2,3,3,4,4,5,5,6,6],"right_children":[2,4,6,8,10,12,14,-1,-1,-1,-1,-1,-1,-1,-1],"split_conditions":[6.09063E-1,-2.8929317E-1,4.5E1,3.5E1,6E0,1E0,7.618116E0,-2.8487828E-2,1.7479897E-2,-3.1188365E-2,2.17724E-2,-1.5461987E-2,2.8957294E-2,3.0673584E-2,-2.4798822E-2],"split_indices":[5,6,0,0,3,17,6,0,0,0,0,0,0,0,0],"split_type":[0,0,0,0,0,0,0,0,0,0,0,0,0,0,0],"sum_hessian":[1.7806954E3,1.0990337E3,6.816617E2,6.36512E2,4.625217E2,7.6852196E1,6.0480945E2,2.991604E2,3.373516E2,4.5559583E2,6.9258914E0,6.2189293E1,1.4662905E1,5.80507E2,2.4302444E1],"tree_param":{"num_deleted":"0","num_feature":"21","num_nodes":"15","size_leaf_vector":"1"}},{"base_weights":[-3.6037265E-4,-4.4339323E-1,9.147917E-1,-9.568254E-1,-5.696348E-2,-1.2113453E-1,1.0061872E0,-2.2531029E-2,-3.1435747E-2,8.322395E-3,-2.9623136E-2,-2.1379264E-2,1.7659064E-2,3.1229202E-2,2.8913587E-3],"categories":[],"categories_nodes":[],"categories_segments":[],"categories_sizes":[],"default_left":[0,1,0,0,0,0,0,0,0,0,0,0,0,0,0],"id":71,"left_children":[1,3,5,7,9,11,13,-1,-1,-1,-1,-1,-1,-1,-1],"loss_changes":[7.091598E2,2.3377678E2,5.414081E1,8.693176E0,2.0982161E2,2.021411E1,1.6496277E1,0E0,0E0,0E0,0E0,0E0,0E0,0E0,0E0],"parents":[2147483647,0,0,1,1,2,2,3,3,4,4,5,5,6,6],"right_children":[2,4,6,8,10,12,14,-1,-1,-1,-1,-1,-1,-1,-1],"split_conditions":[1E0,-3.093073E0,-2.4708478E0,-2.1927385E0,3.0003815E0,6.0515624E-1,4.766142E0,-2.2531029E-2,-3.1435747E-2,8.322395E-3,-2.9623136E-2,-2.1379264E-2,1.7659064E-2,3.1229202E-2,2.8913587E-3],"split_indices":[17,5,5,6,6,15,6,0,0,0,0,0,0,0,0],"split_type":[0,0,0,0,0,0,0,0,0,0,0,0,0,0,0],"sum_hessian":[1.7471006E3,1.1775529E3,5.695478E2,5.0504535E2,6.725075E2,4.6148647E1,5.233991E2,1.5772916E2,3.473162E2,4.9523938E2,1.772681E2,2.5169153E1,2.0979496E1,5.0398526E2,1.9413845E1],"tree_param":{"num_deleted":"0","num_feature":"21","num_nodes":"15","size_leaf_vector":"1"}},{"base_weights":[-3.91986E-4,-4.8477226E-1,8.200401E-1,-1.2242603E-1,-9.9991107E-1,-1.9651523E-1,9.483463E-1,-2.8182361E-2,1.7080812E-2,-3.0871427E-2,2.1505136E-2,-1.2176027E-2,4.103782E-2,3.0602984E-2,-2.368277E-2],"categories":[],"categories_nodes":[],"categories_segments":[],"categories_sizes":[],"default_left":[1,0,0,0,0,0,0,0,0,0,0,0,0,0,0],"id":72,"left_children":[1,3,5,7,9,11,13,-1,-1,-1,-1,-1,-1,-1,-1],"loss_changes":[6.8374915E2,2.0181187E2,8.349408E1,3.6012836E2,2.3076233E1,2.4270857E1,7.1542755E1,0E0,0E0,0E0,0E0,0E0,0E0,0E0,0E0],"parents":[2147483647,0,0,1,1,2,2,3,3,4,4,5,5,6,6],"right_children":[2,4,6,8,10,12,14,-1,-1,-1,-1,-1,-1,-1,-1],"split_conditions":[7.6033354E-1,-2.863727E-1,4.5E1,3.5E1,6E0,1E0,7.6102734E0,-2.8182361E-2,1.7080812E-2,-3.0871427E-2,2.1505136E-2,-1.2176027E-2,4.103782E-2,3.0602984E-2,-2.368277E-2],"split_indices":[5,6,0,0,3,18,6,0,0,0,0,0,0,0,0],"split_type":[0,0,0,0,0,0,0,0,0,0,0,0,0,0,0],"sum_hessian":[1.7185513E3,1.0808376E3,6.377137E2,6.3524615E2,4.455915E2,7.140987E1,5.663038E2,2.9110226E2,3.441439E2,4.3854904E2,7.0424404E0,6.3634872E1,7.774995E0,5.4424475E2,2.2059065E1],"tree_param":{"num_deleted":"0","num_feature":"21","num_nodes":"15","size_leaf_vector":"1"}},{"base_weights":[-3.9453612E-4,-4.3268058E-1,9.0587175E-1,-9.491726E-1,-5.6430973E-2,-5.7174176E-2,1.0045791E0,-2.981746E-2,-1.6639665E-2,7.894303E-3,-2.9355526E-2,1.304724E-2,-2.7684659E-2,-2.4571985E-3,3.1275265E-2],"categories":[],"categories_nodes":[],"categories_segments":[],"categories_sizes":[],"default_left":[0,1,0,1,0,0,0,0,0,0,0,0,0,0,0],"id":73,"left_children":[1,3,5,7,9,11,13,-1,-1,-1,-1,-1,-1,-1,-1],"loss_changes":[6.615217E2,2.2211212E2,5.189557E1,7.952667E0,1.9547392E2,2.2399597E1,2.0471191E1,0E0,0E0,0E0,0E0,0E0,0E0,0E0,0E0],"parents":[2147483647,0,0,1,1,2,2,3,3,4,4,5,5,6,6],"right_children":[2,4,6,8,10,12,14,-1,-1,-1,-1,-1,-1,-1,-1],"split_conditions":[1E0,-3.1112475E0,2E0,1.2301829E0,3.0683687E0,2.5140033E0,3.7E1,-2.981746E-2,-1.6639665E-2,7.894303E-3,-2.9355526E-2,1.304724E-2,-2.7684659E-2,-2.4571985E-3,3.1275265E-2],"split_indices":[17,5,3,14,6,6,0,0,0,0,0,0,0,0,0],"split_type":[0,0,0,0,0,0,0,0,0,0,0,0,0,0,0],"sum_hessian":[1.6865616E3,1.1422397E3,5.44322E2,4.8075983E2,6.6147986E2,5.0642746E1,4.9367926E2,4.3042532E2,5.0334507E1,4.9176117E2,1.697187E2,3.260554E1,1.8037203E1,1.6614103E1,4.7706516E2],"tree_param":{"num_deleted":"0","num_feature":"21","num_nodes":"15","size_leaf_vector":"1"}},{"base_weights":[-4.300794E-4,-4.8401558E-1,7.9184836E-1,-1.2623857E-1,-9.887871E-1,-2.2826093E-1,9.3142927E-1,-2.7702678E-2,1.6401047E-2,-3.0538652E-2,2.0879745E-2,-1.5044336E-2,2.7853101E-2,3.0383104E-2,-2.0145208E-2],"categories":[],"categories_nodes":[],"categories_segments":[],"categories_sizes":[],"default_left":[1,0,0,0,0,0,0,0,0,0,0,0,0,0,0],"id":74,"left_children":[1,3,5,7,9,11,13,-1,-1,-1,-1,-1,-1,-1,-1],"loss_changes":[6.364685E2,1.8617238E2,8.986621E1,3.2497092E2,2.1728302E1,2.4669468E1,7.292035E1,0E0,0E0,0E0,0E0,0E0,0E0,0E0,0E0],"parents":[2147483647,0,0,1,1,2,2,3,3,4,4,5,5,6,6],"right_children":[2,4,6,8,10,12,14,-1,-1,-1,-1,-1,-1,-1,-1],"split_conditions":[6.020107E-1,-3.5800993E-1,4.5E1,3.5E1,6E0,1E0,6.8627925E0,-2.7702678E-2,1.6401047E-2,-3.0538652E-2,2.0879745E-2,-1.5044336E-2,2.7853101E-2,3.0383104E-2,-2.0145208E-2],"split_indices":[5,6,0,0,3,17,6,0,0,0,0,0,0,0,0],"split_type":[0,0,0,0,0,0,0,0,0,0,0,0,0,0,